{"learner":{"attributes":{},"feature_names":[],"feature_types":[],"gradient_booster":{"model":{"cats":{"enc":[],"feature_segments":[],"sorted_idx":[]},"gbtree_model_param":{"num_parallel_tree":"1","num_trees":"4050"},"iteration_indptr":[0,27,54,81,108,135,162,189,216,243,270,297,324,351,378,405,432,459,486,513,540,567,594,621,648,675,702,729,756,783,810,837,864,891,918,945,972,999,1026,1053,1080,1107,1134,1161,1188,1215,1242,1269,1296,1323,1350,1377,1404,1431,1458,1485,1512,1539,1566,1593,1620,1647,1674,1701,1728,1755,1782,1809,1836,1863,1890,1917,1944,1971,1998,2025,2052,2079,2106,2133,2160,2187,2214,2241,2268,2295,2322,2349,2376,2403,2430,2457,2484,2511,2538,2565,2592,2619,2646,2673,2700,2727,2754,2781,2808,2835,2862,2889,2916,2943,2970,2997,3024,3051,3078,3105,3132,3159,3186,3213,3240,3267,3294,3321,3348,3375,3402,3429,3456,3483,3510,3537,3564,3591,3618,3645,3672,3699,3726,3753,3780,3807,3834,3861,3888,3915,3942,3969,3996,4023,4050],"tree_info":[0,1,2,3,4,5,6,7,8,9,10,11,12,13,14,15,16,17,18,19,20,21,22,23,24,25,26,0,1,2,3,4,5,6,7,8,9,10,11,12,13,14,15,16,17,18,19,20,21,22,23,24,25,26,0,1,2,3,4,5,6,7,8,9,10,11,12,13,14,15,16,17,18,19,20,21,22,23,24,25,26,0,1,2,3,4,5,6,7,8,9,10,11,12,13,14,15,16,17,18,19,20,21,22,23,24,25,26,0,1,2,3,4,5,6,7,8,9,10,11,12,13,14,15,16,17,18,19,20,21,22,23,24,25,26,0,1,2,3,4,5,6,7,8,9,10,11,12,13,14,15,16,17,18,19,20,21,22,23,24,25,26,0,1,2,3,4,5,6,7,8,9,10,11,12,13,14,15,16,17,18,19,20,21,22,23,24,25,26,0,1,2,3,4,5,6,7,8,9,10,11,12,13,14,15,16,17,18,19,20,21,22,23,24,25,26,0,1,2,3,4,5,6,7,8,9,10,11,12,13,14,15,16,17,18,19,20,21,22,23,24,25,26,0,1,2,3,4,5,6,7,8,9,10,11,12,13,14,15,16,17,18,19,20,21,22,23,24,25,26,0,1,2,3,4,5,6,7,8,9,10,11,12,13,14,15,16,17,18,19,20,21,22,23,24,25,26,0,1,2,3,4,5,6,7,8,9,10,11,12,13,14,15,16,17,18,19,20,21,22,23,24,25,26,0,1,2,3,4,5,6,7,8,9,10,11,12,13,14,15,16,17,18,19,20,21,22,23,24,25,26,0,1,2,3,4,5,6,7,8,9,10,11,12,13,14,15,16,17,18,19,20,21,22,23,24,25,26,0,1,2,3,4,5,6,7,8,9,10,11,12,13,14,15,16,17,18,19,20,21,22,23,24,25,26,0,1,2,3,4,5,6,7,8,9,10,11,12,13,14,15,16,17,18,19,20,21,22,23,24,25,26,0,1,2,3,4,5,6,7,8,9,10,11,12,13,14,15,16,17,18,19,20,21,22,23,24,25,26,0,1,2,3,4,5,6,7,8,9,10,11,12,13,14,15,16,17,18,19,20,21,22,23,24,25,26,0,1,2,3,4,5,6,7,8,9,10,11,12,13,14,15,16,17,18,19,20,21,22,23,24,25,26,0,1,2,3,4,5,6,7,8,9,10,11,12,13,14,15,16,17,18,19,20,21,22,23,24,25,26,0,1,2,3,4,5,6,7,8,9,10,11,12,13,14,15,16,17,18,19,20,21,22,23,24,25,26,0,1,2,3,4,5,6,7,8,9,10,11,12,13,14,15,16,17,18,19,20,21,22,23,24,25,26,0,1,2,3,4,5,6,7,8,9,10,11,12,13,14,15,16,17,18,19,20,21,22,23,24,25,26,0,1,2,3,4,5,6,7,8,9,10,11,12,13,14,15,16,17,18,19,20,21,22,23,24,25,26,0,1,2,3,4,5,6,7,8,9,10,11,12,13,14,15,16,17,18,19,20,21,22,23,24,25,26,0,1,2,3,4,5,6,7,8,9,10,11,12,13,14,15,16,17,18,19,20,21,22,23,24,25,26,0,1,2,3,4,5,6,7,8,9,10,11,12,13,14,15,16,17,18,19,20,21,22,23,24,25,26,0,1,2,3,4,5,6,7,8,9,10,11,12,13,14,15,16,17,18,19,20,21,22,23,24,25,26,0,1,2,3,4,5,6,7,8,9,10,11,12,13,14,15,16,17,18,19,20,21,22,23,24,25,26,0,1,2,3,4,5,6,7,8,9,10,11,12,13,14,15,16,17,18,19,20,21,22,23,24,25,26,0,1,2,3,4,5,6,7,8,9,10,11,12,13,14,15,16,17,18,19,20,21,22,23,24,25,26,0,1,2,3,4,5,6,7,8,9,10,11,12,13,14,15,16,17,18,19,20,21,22,23,24,25,26,0,1,2,3,4,5,6,7,8,9,10,11,12,13,14,15,16,17,18,19,20,21,22,23,24,25,26,0,1,2,3,4,5,6,7,8,9,10,11,12,13,14,15,16,17,18,19,20,21,22,23,24,25,26,0,1,2,3,4,5,6,7,8,9,10,11,12,13,14,15,16,17,18,19,20,21,22,23,24,25,26,0,1,2,3,4,5,6,7,8,9,10,11,12,13,14,15,16,17,18,19,20,21,22,23,24,25,26,0,1,2,3,4,5,6,7,8,9,10,11,12,13,14,15,16,17,18,19,20,21,22,23,24,25,26,0,1,2,3,4,5,6,7,8,9,10,11,12,13,14,15,16,17,18,19,20,21,22,23,24,25,26,0,1,2,3,4,5,6,7,8,9,10,11,12,13,14,15,16,17,18,19,20,21,22,23,24,25,26,0,1,2,3,4,5,6,7,8,9,10,11,12,13,14,15,16,17,18,19,20,21,22,23,24,25,26,0,1,2,3,4,5,6,7,8,9,10,11,12,13,14,15,16,17,18,19,20,21,22,23,24,25,26,0,1,2,3,4,5,6,7,8,9,10,11,12,13,14,15,16,17,18,19,20,21,22,23,24,25,26,0,1,2,3,4,5,6,7,8,9,10,11,12,13,14,15,16,17,18,19,20,21,22,23,24,25,26,0,1,2,3,4,5,6,7,8,9,10,11,12,13,14,15,16,17,18,19,20,21,22,23,24,25,26,0,1,2,3,4,5,6,7,8,9,10,11,12,13,14,15,16,17,18,19,20,21,22,23,24,25,26,0,1,2,3,4,5,6,7,8,9,10,11,12,13,14,15,16,17,18,19,20,21,22,23,24,25,26,0,1,2,3,4,5,6,7,8,9,10,11,12,13,14,15,16,17,18,19,20,21,22,23,24,25,26,0,1,2,3,4,5,6,7,8,9,10,11,12,13,14,15,16,17,18,19,20,21,22,23,24,25,26,0,1,2,3,4,5,6,7,8,9,10,11,12,13,14,15,16,17,18,19,20,21,22,23,24,25,26,0,1,2,3,4,5,6,7,8,9,10,11,12,13,14,15,16,17,18,19,20,21,22,23,24,25,26,0,1,2,3,4,5,6,7,8,9,10,11,12,13,14,15,16,17,18,19,20,21,22,23,24,25,26,0,1,2,3,4,5,6,7,8,9,10,11,12,13,14,15,16,17,18,19,20,21,22,23,24,25,26,0,1,2,3,4,5,6,7,8,9,10,11,12,13,14,15,16,17,18,19,20,21,22,23,24,25,26,0,1,2,3,4,5,6,7,8,9,10,11,12,13,14,15,16,17,18,19,20,21,22,23,24,25,26,0,1,2,3,4,5,6,7,8,9,10,11,12,13,14,15,16,17,18,19,20,21,22,23,24,25,26,0,1,2,3,4,5,6,7,8,9,10,11,12,13,14,15,16,17,18,19,20,21,22,23,24,25,26,0,1,2,3,4,5,6,7,8,9,10,11,12,13,14,15,16,17,18,19,20,21,22,23,24,25,26,0,1,2,3,4,5,6,7,8,9,10,11,12,13,14,15,16,17,18,19,20,21,22,23,24,25,26,0,1,2,3,4,5,6,7,8,9,10,11,12,13,14,15,16,17,18,19,20,21,22,23,24,25,26,0,1,2,3,4,5,6,7,8,9,10,11,12,13,14,15,16,17,18,19,20,21,22,23,24,25,26,0,1,2,3,4,5,6,7,8,9,10,11,12,13,14,15,16,17,18,19,20,21,22,23,24,25,26,0,1,2,3,4,5,6,7,8,9,10,11,12,13,14,15,16,17,18,19,20,21,22,23,24,25,26,0,1,2,3,4,5,6,7,8,9,10,11,12,13,14,15,16,17,18,19,20,21,22,23,24,25,26,0,1,2,3,4,5,6,7,8,9,10,11,12,13,14,15,16,17,18,19,20,21,22,23,24,25,26,0,1,2,3,4,5,6,7,8,9,10,11,12,13,14,15,16,17,18,19,20,21,22,23,24,25,26,0,1,2,3,4,5,6,7,8,9,10,11,12,13,14,15,16,17,18,19,20,21,22,23,24,25,26,0,1,2,3,4,5,6,7,8,9,10,11,12,13,14,15,16,17,18,19,20,21,22,23,24,25,26,0,1,2,3,4,5,6,7,8,9,10,11,12,13,14,15,16,17,18,19,20,21,22,23,24,25,26,0,1,2,3,4,5,6,7,8,9,10,11,12,13,14,15,16,17,18,19,20,21,22,23,24,25,26,0,1,2,3,4,5,6,7,8,9,10,11,12,13,14,15,16,17,18,19,20,21,22,23,24,25,26,0,1,2,3,4,5,6,7,8,9,10,11,12,13,14,15,16,17,18,19,20,21,22,23,24,25,26,0,1,2,3,4,5,6,7,8,9,10,11,12,13,14,15,16,17,18,19,20,21,22,23,24,25,26,0,1,2,3,4,5,6,7,8,9,10,11,12,13,14,15,16,17,18,19,20,21,22,23,24,25,26,0,1,2,3,4,5,6,7,8,9,10,11,12,13,14,15,16,17,18,19,20,21,22,23,24,25,26,0,1,2,3,4,5,6,7,8,9,10,11,12,13,14,15,16,17,18,19,20,21,22,23,24,25,26,0,1,2,3,4,5,6,7,8,9,10,11,12,13,14,15,16,17,18,19,20,21,22,23,24,25,26,0,1,2,3,4,5,6,7,8,9,10,11,12,13,14,15,16,17,18,19,20,21,22,23,24,25,26,0,1,2,3,4,5,6,7,8,9,10,11,12,13,14,15,16,17,18,19,20,21,22,23,24,25,26,0,1,2,3,4,5,6,7,8,9,10,11,12,13,14,15,16,17,18,19,20,21,22,23,24,25,26,0,1,2,3,4,5,6,7,8,9,10,11,12,13,14,15,16,17,18,19,20,21,22,23,24,25,26,0,1,2,3,4,5,6,7,8,9,10,11,12,13,14,15,16,17,18,19,20,21,22,23,24,25,26,0,1,2,3,4,5,6,7,8,9,10,11,12,13,14,15,16,17,18,19,20,21,22,23,24,25,26,0,1,2,3,4,5,6,7,8,9,10,11,12,13,14,15,16,17,18,19,20,21,22,23,24,25,26,0,1,2,3,4,5,6,7,8,9,10,11,12,13,14,15,16,17,18,19,20,21,22,23,24,25,26,0,1,2,3,4,5,6,7,8,9,10,11,12,13,14,15,16,17,18,19,20,21,22,23,24,25,26,0,1,2,3,4,5,6,7,8,9,10,11,12,13,14,15,16,17,18,19,20,21,22,23,24,25,26,0,1,2,3,4,5,6,7,8,9,10,11,12,13,14,15,16,17,18,19,20,21,22,23,24,25,26,0,1,2,3,4,5,6,7,8,9,10,11,12,13,14,15,16,17,18,19,20,21,22,23,24,25,26,0,1,2,3,4,5,6,7,8,9,10,11,12,13,14,15,16,17,18,19,20,21,22,23,24,25,26,0,1,2,3,4,5,6,7,8,9,10,11,12,13,14,15,16,17,18,19,20,21,22,23,24,25,26,0,1,2,3,4,5,6,7,8,9,10,11,12,13,14,15,16,17,18,19,20,21,22,23,24,25,26,0,1,2,3,4,5,6,7,8,9,10,11,12,13,14,15,16,17,18,19,20,21,22,23,24,25,26,0,1,2,3,4,5,6,7,8,9,10,11,12,13,14,15,16,17,18,19,20,21,22,23,24,25,26,0,1,2,3,4,5,6,7,8,9,10,11,12,13,14,15,16,17,18,19,20,21,22,23,24,25,26,0,1,2,3,4,5,6,7,8,9,10,11,12,13,14,15,16,17,18,19,20,21,22,23,24,25,26,0,1,2,3,4,5,6,7,8,9,10,11,12,13,14,15,16,17,18,19,20,21,22,23,24,25,26,0,1,2,3,4,5,6,7,8,9,10,11,12,13,14,15,16,17,18,19,20,21,22,23,24,25,26,0,1,2,3,4,5,6,7,8,9,10,11,12,13,14,15,16,17,18,19,20,21,22,23,24,25,26,0,1,2,3,4,5,6,7,8,9,10,11,12,13,14,15,16,17,18,19,20,21,22,23,24,25,26,0,1,2,3,4,5,6,7,8,9,10,11,12,13,14,15,16,17,18,19,20,21,22,23,24,25,26,0,1,2,3,4,5,6,7,8,9,10,11,12,13,14,15,16,17,18,19,20,21,22,23,24,25,26,0,1,2,3,4,5,6,7,8,9,10,11,12,13,14,15,16,17,18,19,20,21,22,23,24,25,26,0,1,2,3,4,5,6,7,8,9,10,11,12,13,14,15,16,17,18,19,20,21,22,23,24,25,26,0,1,2,3,4,5,6,7,8,9,10,11,12,13,14,15,16,17,18,19,20,21,22,23,24,25,26,0,1,2,3,4,5,6,7,8,9,10,11,12,13,14,15,16,17,18,19,20,21,22,23,24,25,26,0,1,2,3,4,5,6,7,8,9,10,11,12,13,14,15,16,17,18,19,20,21,22,23,24,25,26,0,1,2,3,4,5,6,7,8,9,10,11,12,13,14,15,16,17,18,19,20,21,22,23,24,25,26,0,1,2,3,4,5,6,7,8,9,10,11,12,13,14,15,16,17,18,19,20,21,22,23,24,25,26,0,1,2,3,4,5,6,7,8,9,10,11,12,13,14,15,16,17,18,19,20,21,22,23,24,25,26,0,1,2,3,4,5,6,7,8,9,10,11,12,13,14,15,16,17,18,19,20,21,22,23,24,25,26,0,1,2,3,4,5,6,7,8,9,10,11,12,13,14,15,16,17,18,19,20,21,22,23,24,25,26,0,1,2,3,4,5,6,7,8,9,10,11,12,13,14,15,16,17,18,19,20,21,22,23,24,25,26,0,1,2,3,4,5,6,7,8,9,10,11,12,13,14,15,16,17,18,19,20,21,22,23,24,25,26,0,1,2,3,4,5,6,7,8,9,10,11,12,13,14,15,16,17,18,19,20,21,22,23,24,25,26,0,1,2,3,4,5,6,7,8,9,10,11,12,13,14,15,16,17,18,19,20,21,22,23,24,25,26,0,1,2,3,4,5,6,7,8,9,10,11,12,13,14,15,16,17,18,19,20,21,22,23,24,25,26,0,1,2,3,4,5,6,7,8,9,10,11,12,13,14,15,16,17,18,19,20,21,22,23,24,25,26,0,1,2,3,4,5,6,7,8,9,10,11,12,13,14,15,16,17,18,19,20,21,22,23,24,25,26,0,1,2,3,4,5,6,7,8,9,10,11,12,13,14,15,16,17,18,19,20,21,22,23,24,25,26,0,1,2,3,4,5,6,7,8,9,10,11,12,13,14,15,16,17,18,19,20,21,22,23,24,25,26,0,1,2,3,4,5,6,7,8,9,10,11,12,13,14,15,16,17,18,19,20,21,22,23,24,25,26,0,1,2,3,4,5,6,7,8,9,10,11,12,13,14,15,16,17,18,19,20,21,22,23,24,25,26,0,1,2,3,4,5,6,7,8,9,10,11,12,13,14,15,16,17,18,19,20,21,22,23,24,25,26,0,1,2,3,4,5,6,7,8,9,10,11,12,13,14,15,16,17,18,19,20,21,22,23,24,25,26,0,1,2,3,4,5,6,7,8,9,10,11,12,13,14,15,16,17,18,19,20,21,22,23,24,25,26,0,1,2,3,4,5,6,7,8,9,10,11,12,13,14,15,16,17,18,19,20,21,22,23,24,25,26,0,1,2,3,4,5,6,7,8,9,10,11,12,13,14,15,16,17,18,19,20,21,22,23,24,25,26,0,1,2,3,4,5,6,7,8,9,10,11,12,13,14,15,16,17,18,19,20,21,22,23,24,25,26,0,1,2,3,4,5,6,7,8,9,10,11,12,13,14,15,16,17,18,19,20,21,22,23,24,25,26,0,1,2,3,4,5,6,7,8,9,10,11,12,13,14,15,16,17,18,19,20,21,22,23,24,25,26,0,1,2,3,4,5,6,7,8,9,10,11,12,13,14,15,16,17,18,19,20,21,22,23,24,25,26,0,1,2,3,4,5,6,7,8,9,10,11,12,13,14,15,16,17,18,19,20,21,22,23,24,25,26,0,1,2,3,4,5,6,7,8,9,10,11,12,13,14,15,16,17,18,19,20,21,22,23,24,25,26,0,1,2,3,4,5,6,7,8,9,10,11,12,13,14,15,16,17,18,19,20,21,22,23,24,25,26,0,1,2,3,4,5,6,7,8,9,10,11,12,13,14,15,16,17,18,19,20,21,22,23,24,25,26,0,1,2,3,4,5,6,7,8,9,10,11,12,13,14,15,16,17,18,19,20,21,22,23,24,25,26,0,1,2,3,4,5,6,7,8,9,10,11,12,13,14,15,16,17,18,19,20,21,22,23,24,25,26,0,1,2,3,4,5,6,7,8,9,10,11,12,13,14,15,16,17,18,19,20,21,22,23,24,25,26,0,1,2,3,4,5,6,7,8,9,10,11,12,13,14,15,16,17,18,19,20,21,22,23,24,25,26,0,1,2,3,4,5,6,7,8,9,10,11,12,13,14,15,16,17,18,19,20,21,22,23,24,25,26,0,1,2,3,4,5,6,7,8,9,10,11,12,13,14,15,16,17,18,19,20,21,22,23,24,25,26,0,1,2,3,4,5,6,7,8,9,10,11,12,13,14,15,16,17,18,19,20,21,22,23,24,25,26,0,1,2,3,4,5,6,7,8,9,10,11,12,13,14,15,16,17,18,19,20,21,22,23,24,25,26,0,1,2,3,4,5,6,7,8,9,10,11,12,13,14,15,16,17,18,19,20,21,22,23,24,25,26,0,1,2,3,4,5,6,7,8,9,10,11,12,13,14,15,16,17,18,19,20,21,22,23,24,25,26,0,1,2,3,4,5,6,7,8,9,10,11,12,13,14,15,16,17,18,19,20,21,22,23,24,25,26,0,1,2,3,4,5,6,7,8,9,10,11,12,13,14,15,16,17,18,19,20,21,22,23,24,25,26,0,1,2,3,4,5,6,7,8,9,10,11,12,13,14,15,16,17,18,19,20,21,22,23,24,25,26,0,1,2,3,4,5,6,7,8,9,10,11,12,13,14,15,16,17,18,19,20,21,22,23,24,25,26,0,1,2,3,4,5,6,7,8,9,10,11,12,13,14,15,16,17,18,19,20,21,22,23,24,25,26],"trees":[{"base_weights":[5.4483213E-2,2.1863556E0,-3.6364943E-1,9.7057015E-2,5.660122E-3,-1.4553251E-2,2.2158915E-2],"categories":[],"categories_nodes":[],"categories_segments":[],"categories_sizes":[],"default_left":[0,0,1,0,0,0,0],"id":0,"left_children":[1,3,5,-1,-1,-1,-1],"loss_changes":[1.7136982E1,5.9871416E0,2.5250673E0,0E0,0E0,0E0,0E0],"parents":[2147483647,0,0,1,1,2,2],"right_children":[2,4,6,-1,-1,-1,-1],"split_conditions":[7.196797E-1,3.0734175E-1,2.5329357E-1,9.7057015E-2,5.660122E-3,-1.4553251E-2,2.2158915E-2],"split_indices":[21,42,217,0,0,0,0],"split_type":[0,0,0,0,0,0,0],"sum_hessian":[1.733275E1,2.148688E0,1.5184063E1,1.0027211E0,1.145967E0,1.4181342E1,1.0027211E0],"tree_param":{"num_deleted":"0","num_feature":"334","num_nodes":"7","size_leaf_vector":"1"}},{"base_weights":[-1.0427759E-1,-1.4056008E-2,3.2997397E-1,-9.949072E-3,5.419603E-1,-8.930704E-3,7.904466E-1,-8.018725E-3,3.2624435E-2],"categories":[],"categories_nodes":[],"categories_segments":[],"categories_sizes":[],"default_left":[0,0,0,0,0,0,0,0,0],"id":1,"left_children":[1,-1,3,-1,5,-1,7,-1,-1],"loss_changes":[3.0219665E0,0E0,1.421798E0,0E0,1.7138638E0,0E0,2.0946813E0,0E0,0E0],"parents":[2147483647,0,0,2,2,4,4,6,6],"right_children":[2,-1,4,-1,6,-1,8,-1,-1],"split_conditions":[7.778964E-1,-1.4056008E-2,2.65992E-1,-9.949072E-3,3.010999E-1,-8.930704E-3,2.5103027E-1,-8.018725E-3,3.2624435E-2],"split_indices":[95,0,42,0,127,0,244,0,0],"split_type":[0,0,0,0,0,0,0,0,0],"sum_hessian":[1.7127356E1,9.27142E0,7.855936E0,1.7693549E0,6.086581E0,1.3447098E0,4.7418714E0,1.061613E0,3.6802583E0],"tree_param":{"num_deleted":"0","num_feature":"334","num_nodes":"9","size_leaf_vector":"1"}},{"base_weights":[-5.0951414E-2,-1.4621844E-2,7.4180834E-2],"categories":[],"categories_nodes":[],"categories_segments":[],"categories_sizes":[],"default_left":[1,0,0],"id":2,"left_children":[1,-1,-1],"loss_changes":[2.1246288E1,0E0,0E0],"parents":[2147483647,0,0],"right_children":[2,-1,-1],"split_conditions":[2.6045147E-1,-1.4621844E-2,7.4180834E-2],"split_indices":[21,0,0],"split_type":[0,0,0],"sum_hessian":[1.719556E1,1.53481045E1,1.8474569E0],"tree_param":{"num_deleted":"0","num_feature":"334","num_nodes":"3","size_leaf_vector":"1"}},{"base_weights":[1.9680911E-3,1.588056E0,-3.5872978E-1,1.4676579E-2,6.440864E-2,6.439981E-3,-4.1535926E-1,-1.4427882E-2,6.439981E-3],"categories":[],"categories_nodes":[],"categories_segments":[],"categories_sizes":[],"default_left":[0,1,0,0,0,0,1,0,0],"id":3,"left_children":[1,3,5,-1,-1,-1,7,-1,-1],"loss_changes":[1.1018505E1,1.141038E0,5.9882426E-1,0E0,0E0,0E0,7.0744085E-1,0E0,0E0],"parents":[2147483647,0,0,1,1,2,2,6,6],"right_children":[2,4,6,-1,-1,-1,8,-1,-1],"split_conditions":[3.4261137E-1,1.4803024E-1,2.927621E-1,1.4676579E-2,6.440864E-2,6.439981E-3,1.9020504E-1,-1.4427882E-2,6.439981E-3],"split_indices":[130,95,21,0,0,0,95,0,0],"split_type":[0,0,0,0,0,0,0,0,0],"sum_hessian":[1.7264025E1,2.568202E0,1.4695823E1,1.4981178E0,1.0700842E0,1.0700842E0,1.3625738E1,1.2555655E1,1.0700842E0],"tree_param":{"num_deleted":"0","num_feature":"334","num_nodes":"9","size_leaf_vector":"1"}},{"base_weights":[1.9680911E-3,-1.40713025E-2,5.481102E-1,4.7734637E-2,1.9043525E-1,-9.833551E-3,3.9077076E-1,-8.757247E-3,1.9055557E-2],"categories":[],"categories_nodes":[],"categories_segments":[],"categories_sizes":[],"default_left":[0,0,0,0,0,0,0,0,0],"id":4,"left_children":[1,-1,3,-1,5,-1,7,-1,-1],"loss_changes":[4.9553113E0,0E0,3.0242665E0,0E0,9.355017E-1,0E0,1.1974123E0,0E0,0E0],"parents":[2147483647,0,0,2,2,4,4,6,6],"right_children":[2,-1,4,-1,6,-1,8,-1,-1],"split_conditions":[7.778964E-1,-1.40713025E-2,1.5559408E-1,4.7734637E-2,2.65992E-1,-9.833551E-3,3.010999E-1,-8.757247E-3,1.9055557E-2],"split_indices":[95,0,76,0,42,0,127,0,0],"split_type":[0,0,0,0,0,0,0,0,0],"sum_hessian":[1.7264025E1,9.345402E0,7.918623E0,1.1414231E0,6.7771997E0,1.7121346E0,5.065065E0,1.284101E0,3.7809641E0],"tree_param":{"num_deleted":"0","num_feature":"334","num_nodes":"9","size_leaf_vector":"1"}},{"base_weights":[5.4483213E-2,9.7057015E-2,-3.1623974E-1,-1.4625279E-2,3.7138533E-2],"categories":[],"categories_nodes":[],"categories_segments":[],"categories_sizes":[],"default_left":[0,0,1,0,0],"id":5,"left_children":[1,-1,3,-1,-1],"loss_changes":[2.2640673E1,0E0,5.2165174E0,0E0,0E0],"parents":[2147483647,0,0,2,2],"right_children":[2,-1,4,-1,-1],"split_conditions":[8.508992E-1,9.7057015E-2,2.8911856E-1,-1.4625279E-2,3.7138533E-2],"split_indices":[100,0,247,0,0],"split_type":[0,0,0,0,0],"sum_hessian":[1.733275E1,1.0027211E0,1.633003E1,1.5327309E1,1.0027211E0],"tree_param":{"num_deleted":"0","num_feature":"334","num_nodes":"5","size_leaf_vector":"1"}},{"base_weights":[1.9680911E-3,1.2237729E-1,-1.4671038E-2],"categories":[],"categories_nodes":[],"categories_segments":[],"categories_sizes":[],"default_left":[0,0,0],"id":6,"left_children":[1,-1,-1],"loss_changes":[3.8558613E1,0E0,0E0],"parents":[2147483647,0,0],"right_children":[2,-1,-1],"split_conditions":[4.791737E-1,1.2237729E-1,-1.4671038E-2],"split_indices":[58,0,0],"split_type":[0,0,0],"sum_hessian":[1.7264025E1,1.0700842E0,1.6193941E1],"tree_param":{"num_deleted":"0","num_feature":"334","num_nodes":"3","size_leaf_vector":"1"}},{"base_weights":[-5.0951414E-2,-3.702345E-1,7.0241086E-2,-4.2330965E-1,6.4864834E-3,6.4864834E-3,-1.45211145E-2],"categories":[],"categories_nodes":[],"categories_segments":[],"categories_sizes":[],"default_left":[1,1,0,0,0,0,0],"id":7,"left_children":[1,3,-1,5,-1,-1,-1],"loss_changes":[1.4765128E1,6.180706E-1,0E0,7.20248E-1,0E0,0E0,0E0],"parents":[2147483647,0,0,1,1,3,3],"right_children":[2,4,-1,6,-1,-1,-1],"split_conditions":[3.1338122E-1,2.6045576E-1,7.0241086E-2,1.5420203E-1,6.4864834E-3,6.4864834E-3,-1.45211145E-2],"split_indices":[0,54,0,76,0,0,0],"split_type":[0,0,0,0,0,0,0],"sum_hessian":[1.719556E1,1.5916553E1,1.2790086E0,1.4850712E1,1.0658406E0,1.0658406E0,1.3784871E1],"tree_param":{"num_deleted":"0","num_feature":"334","num_nodes":"7","size_leaf_vector":"1"}},{"base_weights":[1.5830936E-1,-1.4598102E-2,2.8907208E0,5.5673695E-3,1.2176604E-1],"categories":[],"categories_nodes":[],"categories_segments":[],"categories_sizes":[],"default_left":[1,0,1,0,0],"id":8,"left_children":[1,-1,3,-1,-1],"loss_changes":[3.3955593E1,0E0,1.0847712E1,0E0,0E0],"parents":[2147483647,0,0,2,2],"right_children":[2,-1,4,-1,-1],"split_conditions":[2.332678E-1,-1.4598102E-2,1.4035454E-1,5.5673695E-3,1.2176604E-1],"split_indices":[130,0,95,0,0],"split_type":[0,0,0,0,0],"sum_hessian":[1.7470985E1,1.4799801E1,2.6711836E0,1.1551064E0,1.5160772E0],"tree_param":{"num_deleted":"0","num_feature":"334","num_nodes":"5","size_leaf_vector":"1"}},{"base_weights":[-1.580127E-1,7.9486996E-2,-1.4653866E-2],"categories":[],"categories_nodes":[],"categories_segments":[],"categories_sizes":[],"default_left":[0,0,0],"id":9,"left_children":[1,-1,-1],"loss_changes":[1.8049068E1,0E0,0E0],"parents":[2147483647,0,0],"right_children":[2,-1,-1],"split_conditions":[3.7760815E-1,7.9486996E-2,-1.4653866E-2],"split_indices":[313,0,0],"split_type":[0,0,0],"sum_hessian":[1.7059408E1,1.0574013E0,1.6002007E1],"tree_param":{"num_deleted":"0","num_feature":"334","num_nodes":"3","size_leaf_vector":"1"}},{"base_weights":[5.4483213E-2,-1.4669203E-2,1.2672794E-1],"categories":[],"categories_nodes":[],"categories_segments":[],"categories_sizes":[],"default_left":[1,0,0],"id":10,"left_children":[1,-1,-1],"loss_changes":[4.3609314E1,0E0,0E0],"parents":[2147483647,0,0],"right_children":[2,-1,-1],"split_conditions":[2.809602E-1,-1.4669203E-2,1.2672794E-1],"split_indices":[313,0,0],"split_type":[0,0,0],"sum_hessian":[1.733275E1,1.6115162E1,1.21759E0],"tree_param":{"num_deleted":"0","num_feature":"334","num_nodes":"3","size_leaf_vector":"1"}},{"base_weights":[-1.0427759E-1,7.069593E-1,-4.0907216E-1,-1.00891935E-2,4.0673725E-2,6.5329885E-3,-1.4350585E-2],"categories":[],"categories_nodes":[],"categories_segments":[],"categories_sizes":[],"default_left":[0,0,0,0,0,0,0],"id":11,"left_children":[1,3,5,-1,-1,-1,-1],"loss_changes":[4.771378E0,4.055211E0,7.03913E-1,0E0,0E0,0E0,0E0],"parents":[2147483647,0,0,1,1,2,2],"right_children":[2,4,6,-1,-1,-1,-1],"split_conditions":[1.4803024E-1,2.1536216E-1,2.617716E-1,-1.00891935E-2,4.0673725E-2,6.5329885E-3,-1.4350585E-2],"split_indices":[95,42,217,0,0,0,0],"split_type":[0,0,0,0,0,0,0],"sum_hessian":[1.7127356E1,4.317226E0,1.281013E1,1.8401291E0,2.477097E0,1.061613E0,1.1748517E1],"tree_param":{"num_deleted":"0","num_feature":"334","num_nodes":"7","size_leaf_vector":"1"}},{"base_weights":[-2.667189E-1,2.0096468E-2,-3.689426E-1,6.672518E-3,-4.2243037E-1,6.672518E-3,-1.450645E-2],"categories":[],"categories_nodes":[],"categories_segments":[],"categories_sizes":[],"default_left":[0,0,0,0,0,0,0],"id":12,"left_children":[1,-1,3,-1,5,-1,-1],"loss_changes":[1.9632705E0,0E0,6.255169E-1,0E0,7.285335E-1,0E0,0E0],"parents":[2147483647,0,0,2,2,4,4],"right_children":[2,-1,4,-1,6,-1,-1],"split_conditions":[8.181472E-1,2.0096468E-2,2.9921114E-1,6.672518E-3,2.4982587E-1,6.672518E-3,-1.450645E-2],"split_indices":[239,0,213,0,222,0,0],"split_type":[0,0,0,0,0,0,0],"sum_hessian":[1.692429E1,1.1189613E0,1.5805328E1,1.0490263E0,1.4756303E1,1.0490263E0,1.3707276E1],"tree_param":{"num_deleted":"0","num_feature":"334","num_nodes":"7","size_leaf_vector":"1"}},{"base_weights":[1.0659622E-1,1.4168122E-1,-4.3205222E-1,7.132784E-3,-1.4631172E-2],"categories":[],"categories_nodes":[],"categories_segments":[],"categories_sizes":[],"default_left":[0,0,0,0,0],"id":13,"left_children":[1,-1,3,-1,-1],"loss_changes":[4.7795666E1,0E0,7.6439714E-1,0E0,0E0],"parents":[2147483647,0,0,2,2],"right_children":[2,-1,4,-1,-1],"split_conditions":[8.1897366E-1,1.4168122E-1,2.540666E-1,7.132784E-3,-1.4631172E-2],"split_indices":[325,0,54,0,0],"split_type":[0,0,0,0,0],"sum_hessian":[1.7401737E1,1.0067121E0,1.6395025E1,1.0067121E0,1.5388313E1],"tree_param":{"num_deleted":"0","num_feature":"334","num_nodes":"5","size_leaf_vector":"1"}},{"base_weights":[1.9680911E-3,-1.9143414E-1,4.029006E-2,3.372526E-2,-3.5872978E-1,-1.4511956E-2,2.0932145E-2],"categories":[],"categories_nodes":[],"categories_segments":[],"categories_sizes":[],"default_left":[1,0,0,0,1,0,0],"id":14,"left_children":[1,3,-1,-1,5,-1,-1],"loss_changes":[4.9940352E0,4.1090813E0,0E0,0E0,2.4103198E0,0E0,0E0],"parents":[2147483647,0,0,1,1,4,4],"right_children":[2,4,-1,-1,6,-1,-1],"split_conditions":[2.7683794E-1,2.4982587E-1,4.029006E-2,3.372526E-2,2.6117346E-1,-1.4511956E-2,2.0932145E-2],"split_indices":[130,222,0,0,213,0,0],"split_type":[0,0,0,0,0,0,0],"sum_hessian":[1.7264025E1,1.5837246E1,1.4267789E0,1.1414231E0,1.4695823E1,1.3625738E1,1.0700842E0],"tree_param":{"num_deleted":"0","num_feature":"334","num_nodes":"7","size_leaf_vector":"1"}},{"base_weights":[1.5830936E-1,1.8557225E0,-1.8097109E-1,5.5673695E-3,8.168648E-2,3.692635E-2,-3.5475057E-1,3.5773728E-2,-1.42589165E-2,-9.013429E-3,8.290656E-3],"categories":[],"categories_nodes":[],"categories_segments":[],"categories_sizes":[],"default_left":[0,1,0,0,0,0,0,0,0,0,0],"id":15,"left_children":[1,3,5,-1,-1,-1,7,9,-1,-1,-1],"loss_changes":[1.0973255E1,4.0796957E0,4.437134E0,0E0,0E0,0E0,7.370106E-1,4.5006353E-1,0E0,0E0,0E0],"parents":[2147483647,0,0,1,1,2,2,6,6,7,7],"right_children":[2,4,6,-1,-1,-1,8,10,-1,-1,-1],"split_conditions":[2.072095E-1,1.3258123E-1,3.149973E-1,5.5673695E-3,8.168648E-2,3.692635E-2,1.5369008E-1,3.6124003E-1,-1.42589165E-2,-9.013429E-3,8.290656E-3],"split_indices":[42,95,213,0,0,0,95,76,0,0,0],"split_type":[0,0,0,0,0,0,0,0,0,0,0],"sum_hessian":[1.7470985E1,2.1658247E0,1.53051605E1,1.1551064E0,1.0107181E0,1.0107181E0,1.4294442E1,3.5375135E0,1.0756928E1,1.3716888E0,2.1658247E0],"tree_param":{"num_deleted":"0","num_feature":"334","num_nodes":"11","size_leaf_vector":"1"}},{"base_weights":[1.0659622E-1,3.521229E-2,-2.7605327E-2,3.3513866E-2,-1.7811787E-1,2.1220596E-1,-3.8121167E-1,-1.015197E-2,1.5891861E-2,5.613741E-3,-1.399919E-2],"categories":[],"categories_nodes":[],"categories_segments":[],"categories_sizes":[],"default_left":[0,0,0,0,0,0,0,0,0,0,0],"id":16,"left_children":[1,-1,3,-1,5,7,9,-1,-1,-1,-1],"loss_changes":[2.6677651E0,0E0,3.1836994E0,0E0,1.3629346E0,1.259248E0,6.211574E-1,0E0,0E0,0E0,0E0],"parents":[2147483647,0,0,2,2,4,4,5,5,6,6],"right_children":[2,-1,4,-1,6,8,10,-1,-1,-1,-1],"split_conditions":[4.2369694E-1,3.521229E-2,1.3008276E-1,3.3513866E-2,1.973356E-1,2.7382293E-1,1.4035454E-1,-1.015197E-2,1.5891861E-2,5.613741E-3,-1.399919E-2],"split_indices":[0,0,95,0,76,244,95,0,0,0,0],"split_type":[0,0,0,0,0,0,0,0,0,0,0],"sum_hessian":[1.7401737E1,1.0786201E0,1.6323116E1,1.1505281E0,1.5172589E1,5.1773763E0,9.995213E0,1.8696082E0,3.307768E0,1.1505281E0,8.844685E0],"tree_param":{"num_deleted":"0","num_feature":"334","num_nodes":"11","size_leaf_vector":"1"}},{"base_weights":[1.9680911E-3,-2.3518048E-1,3.37873E-2,-1.1657912E-2,1.4724575E-1,3.2135766E-2,-1.1747442E-2],"categories":[],"categories_nodes":[],"categories_segments":[],"categories_sizes":[],"default_left":[1,1,0,0,0,0,0],"id":17,"left_children":[1,3,-1,-1,5,-1,-1],"loss_changes":[5.13443E0,9.906579E-1,0E0,0E0,3.0482614E0,0E0,0E0],"parents":[2147483647,0,0,1,1,4,4],"right_children":[2,4,-1,-1,6,-1,-1],"split_conditions":[2.4333356E-1,1.461555E-1,3.37873E-2,-1.1657912E-2,1.5591653E-1,3.2135766E-2,-1.1747442E-2],"split_indices":[130,95,0,0,95,0,0],"split_type":[0,0,0,0,0,0,0],"sum_hessian":[1.7264025E1,1.490984E1,2.354185E0,1.0629502E1,4.280337E0,1.212762E0,3.0675745E0],"tree_param":{"num_deleted":"0","num_feature":"334","num_nodes":"7","size_leaf_vector":"1"}},{"base_weights":[1.9680911E-3,3.542431E-2,-1.4007443E-1,-3.6821666E-1,1.5931423E-1,6.439981E-3,-1.3844286E-2,-9.833551E-3,3.4022486E-1,-8.757247E-3,1.6651107E-2],"categories":[],"categories_nodes":[],"categories_segments":[],"categories_sizes":[],"default_left":[0,0,0,0,0,0,0,0,0,0,0],"id":18,"left_children":[1,-1,3,5,7,-1,-1,-1,9,-1,-1],"loss_changes":[3.2236345E0,0E0,1.2330632E0,6.459211E-1,8.282911E-1,0E0,0E0,0E0,1.0340294E0,0E0,0E0],"parents":[2147483647,0,0,2,2,3,3,4,4,8,8],"right_children":[2,-1,4,6,8,-1,-1,-1,10,-1,-1],"split_conditions":[1.5420203E-1,3.542431E-2,7.778964E-1,3.4040526E-1,2.65992E-1,6.439981E-3,-1.3844286E-2,-9.833551E-3,3.010999E-1,-8.757247E-3,1.6651107E-2],"split_indices":[76,0,95,60,42,0,0,0,127,0,0],"split_type":[0,0,0,0,0,0,0,0,0,0,0],"sum_hessian":[1.7264025E1,1.0700842E0,1.6193941E1,9.060046E0,7.1338944E0,1.0700842E0,7.9899616E0,1.7121346E0,5.4217596E0,1.284101E0,4.1376586E0],"tree_param":{"num_deleted":"0","num_feature":"334","num_nodes":"11","size_leaf_vector":"1"}},{"base_weights":[1.5830936E-1,1.7120673E-1,-1.4691906E-2],"categories":[],"categories_nodes":[],"categories_segments":[],"categories_sizes":[],"default_left":[0,0,0],"id":19,"left_children":[1,-1,-1],"loss_changes":[6.921097E1,0E0,0E0],"parents":[2147483647,0,0],"right_children":[2,-1,-1],"split_conditions":[8.9035845E-1,1.7120673E-1,-1.4691906E-2],"split_indices":[145,0,0],"split_type":[0,0,0],"sum_hessian":[1.7470985E1,1.0107181E0,1.6460266E1],"tree_param":{"num_deleted":"0","num_feature":"334","num_nodes":"3","size_leaf_vector":"1"}},{"base_weights":[-5.0951414E-2,-4.2330965E-1,1.7288282E0,6.4864834E-3,-1.45211145E-2,7.909615E-2,4.422997E-3],"categories":[],"categories_nodes":[],"categories_segments":[],"categories_sizes":[],"default_left":[1,0,1,0,0,0,0],"id":20,"left_children":[1,3,5,-1,-1,-1,-1],"loss_changes":[1.2790313E1,7.20248E-1,4.4126453E0,0E0,0E0,0E0,0E0],"parents":[2147483647,0,0,1,1,2,2],"right_children":[2,4,6,-1,-1,-1,-1],"split_conditions":[2.3424448E-1,1.3258123E-1,1.3742867E-1,6.4864834E-3,-1.45211145E-2,7.909615E-2,4.422997E-3],"split_indices":[222,95,95,0,0,0,0],"split_type":[0,0,0,0,0,0,0],"sum_hessian":[1.719556E1,1.4850712E1,2.3448493E0,1.0658406E0,1.3784871E1,1.0658406E0,1.2790086E0],"tree_param":{"num_deleted":"0","num_feature":"334","num_nodes":"7","size_leaf_vector":"1"}},{"base_weights":[1.9680911E-3,6.34394E-2,-3.6570767E-1,2.0932145E-2,-1.4561489E-2],"categories":[],"categories_nodes":[],"categories_segments":[],"categories_sizes":[],"default_left":[0,0,0,0,0],"id":21,"left_children":[1,-1,3,-1,-1],"loss_changes":[1.4960484E1,0E0,2.427041E0,0E0,0E0],"parents":[2147483647,0,0,2,2],"right_children":[2,-1,4,-1,-1],"split_conditions":[3.4608367E-1,6.34394E-2,2.4868064E-1,2.0932145E-2,-1.4561489E-2],"split_indices":[21,0,217,0,0],"split_type":[0,0,0,0,0],"sum_hessian":[1.7264025E1,1.8548125E0,1.5409212E1,1.0700842E0,1.4339128E1],"tree_param":{"num_deleted":"0","num_feature":"334","num_nodes":"5","size_leaf_vector":"1"}},{"base_weights":[5.4483213E-2,8.20774E-2,-2.5853643E-1,3.5318285E-2,-4.2585224E-1,7.179297E-3,-1.455807E-2],"categories":[],"categories_nodes":[],"categories_segments":[],"categories_sizes":[],"default_left":[0,0,0,0,0,0,0],"id":22,"left_children":[1,-1,3,-1,5,-1,-1],"loss_changes":[1.609475E1,0E0,4.6646104E0,0E0,7.5858355E-1,0E0,0E0],"parents":[2147483647,0,0,2,2,4,4],"right_children":[2,-1,4,-1,6,-1,-1],"split_conditions":[3.0154583E-1,8.20774E-2,3.4242657E-1,3.5318285E-2,2.607016E-1,7.179297E-3,-1.455807E-2],"split_indices":[85,0,257,0,54,0,0],"split_type":[0,0,0,0,0,0,0],"sum_hessian":[1.733275E1,1.0027211E0,1.633003E1,1.074344E0,1.5255686E1,1.0027211E0,1.4252965E1],"tree_param":{"num_deleted":"0","num_feature":"334","num_nodes":"7","size_leaf_vector":"1"}},{"base_weights":[-5.0951414E-2,7.909615E-2,-3.7208766E-1,1.1311004E-1,-1.4473491E-2,-9.14175E-3,1.3909541E-2],"categories":[],"categories_nodes":[],"categories_segments":[],"categories_sizes":[],"default_left":[0,0,0,0,0,0,0],"id":23,"left_children":[1,-1,3,5,-1,-1,-1],"loss_changes":[1.668471E1,0E0,9.71822E-1,7.248683E-1,0E0,0E0,0E0],"parents":[2147483647,0,0,2,2,3,3],"right_children":[2,-1,4,6,-1,-1,-1],"split_conditions":[4.791737E-1,7.909615E-2,1.4159407E-1,1.3274743E-1,-1.4473491E-2,-9.14175E-3,1.3909541E-2],"split_indices":[58,0,95,95,0,0,0],"split_type":[0,0,0,0,0,0,0],"sum_hessian":[1.719556E1,1.0658406E0,1.612972E1,2.9843535E0,1.3145367E1,1.4211208E0,1.5632329E0],"tree_param":{"num_deleted":"0","num_feature":"334","num_nodes":"7","size_leaf_vector":"1"}},{"base_weights":[1.0659622E-1,1.5663107E-1,-1.4686197E-2],"categories":[],"categories_nodes":[],"categories_segments":[],"categories_sizes":[],"default_left":[0,0,0],"id":24,"left_children":[1,-1,-1],"loss_changes":[5.8661E1,0E0,0E0],"parents":[2147483647,0,0],"right_children":[2,-1,-1],"split_conditions":[9.1695076E-1,1.5663107E-1,-1.4686197E-2],"split_indices":[312,0,0],"split_type":[0,0,0],"sum_hessian":[1.7401737E1,1.0067121E0,1.6395025E1],"tree_param":{"num_deleted":"0","num_feature":"334","num_nodes":"3","size_leaf_vector":"1"}},{"base_weights":[-5.0951414E-2,5.0863188E-2,-3.0846593E-1,2.2451153E-2,-1.4531144E-2],"categories":[],"categories_nodes":[],"categories_segments":[],"categories_sizes":[],"default_left":[0,0,0,0,0],"id":25,"left_children":[1,-1,3,-1,-1],"loss_changes":[8.705913E0,0E0,3.4677095E0,0E0,0E0],"parents":[2147483647,0,0,2,2],"right_children":[2,-1,4,-1,-1],"split_conditions":[3.938956E-1,5.0863188E-2,7.862963E-1,2.2451153E-2,-1.4531144E-2],"split_indices":[257,0,213,0,0],"split_type":[0,0,0,0,0],"sum_hessian":[1.719556E1,1.4921768E0,1.5703384E1,1.7764009E0,1.3926984E1],"tree_param":{"num_deleted":"0","num_feature":"334","num_nodes":"5","size_leaf_vector":"1"}},{"base_weights":[-1.580127E-1,7.9486996E-2,-1.4653866E-2],"categories":[],"categories_nodes":[],"categories_segments":[],"categories_sizes":[],"default_left":[0,0,0],"id":26,"left_children":[1,-1,-1],"loss_changes":[1.8049068E1,0E0,0E0],"parents":[2147483647,0,0],"right_children":[2,-1,-1],"split_conditions":[2.927621E-1,7.9486996E-2,-1.4653866E-2],"split_indices":[21,0,0],"split_type":[0,0,0],"sum_hessian":[1.7059408E1,1.0574013E0,1.6002007E1],"tree_param":{"num_deleted":"0","num_feature":"334","num_nodes":"3","size_leaf_vector":"1"}},{"base_weights":[5.4546148E-2,2.0947487E0,-3.6242485E-1,9.597087E-2,4.7955993E-3,-1.45381745E-2,2.1664543E-2],"categories":[],"categories_nodes":[],"categories_segments":[],"categories_sizes":[],"default_left":[0,0,1,0,0,0,0],"id":27,"left_children":[1,3,5,-1,-1,-1,-1],"loss_changes":[1.6352917E1,6.450041E0,2.4797711E0,0E0,0E0,0E0,0E0],"parents":[2147483647,0,0,1,1,2,2],"right_children":[2,4,6,-1,-1,-1,-1],"split_conditions":[7.196797E-1,2.65992E-1,2.5329357E-1,9.597087E-2,4.7955993E-3,-1.45381745E-2,2.1664543E-2],"split_indices":[21,42,217,0,0,0,0],"split_type":[0,0,0,0,0,0,0],"sum_hessian":[1.7330353E1,2.2580726E0,1.507228E1,1.0216589E0,1.2364137E0,1.4043427E1,1.0288528E0],"tree_param":{"num_deleted":"0","num_feature":"334","num_nodes":"7","size_leaf_vector":"1"}},{"base_weights":[-1.0488231E-1,-1.4037523E-2,3.189625E-1,-9.927129E-3,5.2346903E-1,-8.908875E-3,7.6093817E-1,-8.0106E-3,3.1282425E-2],"categories":[],"categories_nodes":[],"categories_segments":[],"categories_sizes":[],"default_left":[0,0,0,0,0,0,0,0,0],"id":28,"left_children":[1,-1,3,-1,5,-1,7,-1,-1],"loss_changes":[2.942347E0,0E0,1.3652668E0,0E0,1.6306227E0,0E0,1.979502E0,0E0,0E0],"parents":[2147483647,0,0,2,2,4,4,6,6],"right_children":[2,-1,4,-1,6,-1,8,-1,-1],"split_conditions":[7.778964E-1,-1.4037523E-2,2.65992E-1,-9.927129E-3,3.010999E-1,-8.908875E-3,2.5103027E-1,-8.0106E-3,3.1282425E-2],"split_indices":[95,0,42,0,127,0,244,0,0],"split_type":[0,0,0,0,0,0,0,0,0],"sum_hessian":[1.7152262E1,9.18288E0,7.969382E0,1.759644E0,6.209738E0,1.3376751E0,4.8720627E0,1.0595638E0,3.8124988E0],"tree_param":{"num_deleted":"0","num_feature":"334","num_nodes":"9","size_leaf_vector":"1"}},{"base_weights":[-5.071674E-2,-1.46072265E-2,6.988699E-2],"categories":[],"categories_nodes":[],"categories_segments":[],"categories_sizes":[],"default_left":[1,0,0],"id":29,"left_children":[1,-1,-1],"loss_changes":[2.0016294E1,0E0,0E0],"parents":[2147483647,0,0],"right_children":[2,-1,-1],"split_conditions":[2.6045147E-1,-1.46072265E-2,6.988699E-2],"split_indices":[21,0,0],"split_type":[0,0,0],"sum_hessian":[1.7186247E1,1.5196841E1,1.9894049E0],"tree_param":{"num_deleted":"0","num_feature":"334","num_nodes":"3","size_leaf_vector":"1"}},{"base_weights":[2.0028139E-3,1.5340635E0,-3.5763657E-1,5.8395673E-2,7.004533E-3,7.1646823E-3,-4.1501948E-1,-1.4425267E-2,7.068397E-3],"categories":[],"categories_nodes":[],"categories_segments":[],"categories_sizes":[],"default_left":[0,0,0,0,0,0,1,0,0],"id":30,"left_children":[1,3,5,-1,-1,-1,7,-1,-1],"loss_changes":[1.061113E1,1.509428E0,6.331041E-1,0E0,0E0,0E0,7.384553E-1,0E0,0E0],"parents":[2147483647,0,0,1,1,2,2,6,6],"right_children":[2,4,6,-1,-1,-1,8,-1,-1],"split_conditions":[3.4261137E-1,2.5915068E-1,2.9201576E-1,5.8395673E-2,7.004533E-3,7.1646823E-3,1.9215436E-1,-1.4425267E-2,7.068397E-3],"split_indices":[130,95,21,0,0,0,95,0,0],"split_type":[0,0,0,0,0,0,0,0,0],"sum_hessian":[1.7262592E1,2.661037E0,1.4601555E1,1.6432475E0,1.0177895E0,1.0039732E0,1.3597582E1,1.258532E1,1.012261E0],"tree_param":{"num_deleted":"0","num_feature":"334","num_nodes":"9","size_leaf_vector":"1"}},{"base_weights":[7.6739874E-4,-1.4052823E-2,5.325066E-1,4.60105E-2,1.8388295E-1,-9.867947E-3,3.823026E-1,-8.031005E-3,1.7163904E-2],"categories":[],"categories_nodes":[],"categories_segments":[],"categories_sizes":[],"default_left":[0,0,0,0,0,0,0,0,0],"id":31,"left_children":[1,-1,3,-1,5,-1,7,-1,-1],"loss_changes":[4.8161716E0,0E0,2.8761334E0,0E0,9.242569E-1,0E0,9.0838426E-1,0E0,0E0],"parents":[2147483647,0,0,2,2,4,4,6,6],"right_children":[2,-1,4,-1,6,-1,8,-1,-1],"split_conditions":[7.778964E-1,-1.4052823E-2,1.5559408E-1,4.60105E-2,8.197025E-1,-9.867947E-3,3.010999E-1,-8.031005E-3,1.7163904E-2],"split_indices":[95,0,76,0,244,0,127,0,0],"split_type":[0,0,0,0,0,0,0,0,0],"sum_hessian":[1.7304317E1,9.25605E0,8.048267E0,1.2007378E0,6.8475294E0,1.7268188E0,5.120711E0,1.0647144E0,4.0559964E0],"tree_param":{"num_deleted":"0","num_feature":"334","num_nodes":"9","size_leaf_vector":"1"}},{"base_weights":[5.479935E-2,9.566212E-2,-3.1570837E-1,-1.46152945E-2,3.6077E-2],"categories":[],"categories_nodes":[],"categories_segments":[],"categories_sizes":[],"default_left":[0,0,1,0,0],"id":32,"left_children":[1,-1,3,-1,-1],"loss_changes":[2.2281815E1,0E0,5.0884304E0,0E0,0E0],"parents":[2147483647,0,0,2,2],"right_children":[2,-1,4,-1,-1],"split_conditions":[4.254446E-1,9.566212E-2,2.8911856E-1,-1.46152945E-2,3.6077E-2],"split_indices":[100,0,247,0,0],"split_type":[0,0,0,0,0],"sum_hessian":[1.7322466E1,1.0272318E0,1.6295235E1,1.5251873E1,1.0433624E0],"tree_param":{"num_deleted":"0","num_feature":"334","num_nodes":"5","size_leaf_vector":"1"}},{"base_weights":[2.6932117E-3,1.1399567E-1,-1.4656895E-2],"categories":[],"categories_nodes":[],"categories_segments":[],"categories_sizes":[],"default_left":[0,0,0],"id":33,"left_children":[1,-1,-1],"loss_changes":[3.5878864E1,0E0,0E0],"parents":[2147483647,0,0],"right_children":[2,-1,-1],"split_conditions":[4.791737E-1,1.1399567E-1,-1.4656895E-2],"split_indices":[58,0,0],"split_type":[0,0,0],"sum_hessian":[1.7238852E1,1.2032633E0,1.603559E1],"tree_param":{"num_deleted":"0","num_feature":"334","num_nodes":"3","size_leaf_vector":"1"}},{"base_weights":[-5.042575E-2,-3.6909032E-1,6.682734E-2,-4.2284057E-1,7.169426E-3,7.154466E-3,-1.4516321E-2],"categories":[],"categories_nodes":[],"categories_segments":[],"categories_sizes":[],"default_left":[1,1,0,0,0,0,0],"id":34,"left_children":[1,3,-1,5,-1,-1,-1],"loss_changes":[1.4016209E1,6.502378E-1,0E0,7.5313926E-1,0E0,0E0,0E0],"parents":[2147483647,0,0,1,1,3,3],"right_children":[2,4,-1,6,-1,-1,-1],"split_conditions":[3.1338122E-1,2.6250955E-1,6.682734E-2,1.5408954E-1,7.169426E-3,7.154466E-3,-1.4516321E-2],"split_indices":[0,54,0,76,0,0,0],"split_type":[0,0,0,0,0,0,0],"sum_hessian":[1.7175621E1,1.58029585E1,1.3726621E0,1.4799392E1,1.0035665E0,1.0048493E0,1.3794542E1],"tree_param":{"num_deleted":"0","num_feature":"334","num_nodes":"7","size_leaf_vector":"1"}},{"base_weights":[1.5612873E-1,-1.4583731E-2,2.7160661E0,5.478492E-3,1.121718E-1],"categories":[],"categories_nodes":[],"categories_segments":[],"categories_sizes":[],"default_left":[1,0,1,0,0],"id":35,"left_children":[1,-1,3,-1,-1],"loss_changes":[3.1782707E1,0E0,9.341652E0,0E0,0E0],"parents":[2147483647,0,0,2,2],"right_children":[2,-1,4,-1,-1],"split_conditions":[2.332678E-1,-1.4583731E-2,1.4035454E-1,5.478492E-3,1.121718E-1],"split_indices":[130,0,95,0,0],"split_type":[0,0,0,0,0],"sum_hessian":[1.7527975E1,1.46600685E1,2.8679068E0,1.1639328E0,1.703974E0],"tree_param":{"num_deleted":"0","num_feature":"334","num_nodes":"5","size_leaf_vector":"1"}},{"base_weights":[-1.564835E-1,7.916268E-2,-1.4644239E-2],"categories":[],"categories_nodes":[],"categories_segments":[],"categories_sizes":[],"default_left":[0,0,0],"id":36,"left_children":[1,-1,-1],"loss_changes":[1.7963007E1,0E0,0E0],"parents":[2147483647,0,0],"right_children":[2,-1,-1],"split_conditions":[3.5756105E-1,7.916268E-2,-1.4644239E-2],"split_indices":[313,0,0],"split_type":[0,0,0],"sum_hessian":[1.6986826E1,1.0639031E0,1.5922923E1],"tree_param":{"num_deleted":"0","num_feature":"334","num_nodes":"3","size_leaf_vector":"1"}},{"base_weights":[5.4449238E-2,-1.4655122E-2,1.17303476E-1],"categories":[],"categories_nodes":[],"categories_segments":[],"categories_sizes":[],"default_left":[1,0,0],"id":37,"left_children":[1,-1,-1],"loss_changes":[4.0289185E1,0E0,0E0],"parents":[2147483647,0,0],"right_children":[2,-1,-1],"split_conditions":[2.809602E-1,-1.4655122E-2,1.17303476E-1],"split_indices":[313,0,0],"split_type":[0,0,0],"sum_hessian":[1.7332958E1,1.5958931E1,1.3740273E0],"tree_param":{"num_deleted":"0","num_feature":"334","num_nodes":"3","size_leaf_vector":"1"}},{"base_weights":[-1.0416892E-1,6.8505853E-1,-4.0812334E-1,-1.0057253E-2,1.2977372E0,6.4373338E-3,-1.4334855E-2,5.106647E-2,1.401372E-2],"categories":[],"categories_nodes":[],"categories_segments":[],"categories_sizes":[],"default_left":[0,0,0,0,0,0,0,0,0],"id":38,"left_children":[1,3,5,-1,7,-1,-1,-1,-1],"loss_changes":[4.6269817E0,3.8183217E0,6.976328E-1,0E0,4.099269E-1,0E0,0E0,0E0,0E0],"parents":[2147483647,0,0,1,1,2,2,4,4],"right_children":[2,4,6,-1,8,-1,-1,-1,-1],"split_conditions":[1.4803024E-1,2.1536216E-1,2.617716E-1,-1.0057253E-2,3.403721E-1,6.4373338E-3,-1.4334855E-2,5.106647E-2,1.401372E-2],"split_indices":[95,42,217,0,76,0,0,0,0],"split_type":[0,0,0,0,0,0,0,0,0],"sum_hessian":[1.7122507E1,4.412219E0,1.2710288E1,1.8253202E0,2.5868988E0,1.0703256E0,1.1639963E1,1.0340203E0,1.5528785E0],"tree_param":{"num_deleted":"0","num_feature":"334","num_nodes":"9","size_leaf_vector":"1"}},{"base_weights":[-2.6538944E-1,1.96581E-2,-3.6779124E-1,6.736052E-3,-4.2163125E-1,6.7638634E-3,-1.4495185E-2],"categories":[],"categories_nodes":[],"categories_segments":[],"categories_sizes":[],"default_left":[0,0,0,0,0,0,0],"id":39,"left_children":[1,-1,3,-1,5,-1,-1],"loss_changes":[1.9226292E0,0E0,6.2699866E-1,0E0,7.321229E-1,0E0,0E0],"parents":[2147483647,0,0,2,2,4,4],"right_children":[2,-1,4,-1,6,-1,-1],"split_conditions":[8.181472E-1,1.96581E-2,2.4833088E-1,6.736052E-3,1.5441087E-1,6.7638634E-3,-1.4495185E-2],"split_indices":[239,0,217,0,76,0,0],"split_type":[0,0,0,0,0,0,0],"sum_hessian":[1.6837046E1,1.1448736E0,1.5692173E1,1.0433408E0,1.4648832E1,1.0408627E0,1.3607969E1],"tree_param":{"num_deleted":"0","num_feature":"334","num_nodes":"7","size_leaf_vector":"1"}},{"base_weights":[1.0628296E-1,-4.3159196E-1,1.3643928E-1,7.201549E-3,-1.4623265E-2],"categories":[],"categories_nodes":[],"categories_segments":[],"categories_sizes":[],"default_left":[1,0,0,0,0],"id":40,"left_children":[1,3,-1,-1,-1],"loss_changes":[4.594522E1,7.6725507E-1,0E0,0E0,0E0],"parents":[2147483647,0,0,1,1],"right_children":[2,4,-1,-1,-1],"split_conditions":[3.54346E-1,3.607501E-1,1.3643928E-1,7.201549E-3,-1.4623265E-2],"split_indices":[325,291,0,0,0],"split_type":[0,0,0,0,0],"sum_hessian":[1.7409779E1,1.6334549E1,1.0752301E0,1.0008146E0,1.5333734E1],"tree_param":{"num_deleted":"0","num_feature":"334","num_nodes":"5","size_leaf_vector":"1"}},{"base_weights":[2.0885654E-3,-1.901626E-1,3.8990207E-2,3.276384E-2,-3.5753006E-1,-1.4502294E-2,2.1750465E-2],"categories":[],"categories_nodes":[],"categories_segments":[],"categories_sizes":[],"default_left":[1,0,0,0,1,0,0],"id":41,"left_children":[1,3,-1,-1,5,-1,-1],"loss_changes":[4.802258E0,3.9907875E0,0E0,0E0,2.4752588E0,0E0,0E0],"parents":[2147483647,0,0,1,1,4,4],"right_children":[2,4,-1,-1,6,-1,-1],"split_conditions":[2.7683794E-1,2.4982587E-1,3.8990207E-2,3.276384E-2,2.702218E-1,-1.4502294E-2,2.1750465E-2],"split_indices":[130,222,0,0,213,0,0],"split_type":[0,0,0,0,0,0,0],"sum_hessian":[1.7259714E1,1.5775808E1,1.4839066E0,1.1834491E0,1.4592359E1,1.3568095E1,1.024264E0],"tree_param":{"num_deleted":"0","num_feature":"334","num_nodes":"7","size_leaf_vector":"1"}},{"base_weights":[1.5626399E-1,1.7860745E0,-1.8007293E-1,4.721989E-3,8.1393145E-2,3.592553E-2,-3.537833E-1,3.3473372E-2,-1.4242601E-2,-8.993844E-3,8.101584E-3],"categories":[],"categories_nodes":[],"categories_segments":[],"categories_sizes":[],"default_left":[0,1,0,0,0,0,0,0,0,0,0],"id":42,"left_children":[1,3,5,-1,-1,-1,7,9,-1,-1,-1],"loss_changes":[1.0476321E1,4.4958E0,4.31575E0,0E0,0E0,0E0,7.286632E-1,4.401505E-1,0E0,0E0,0E0],"parents":[2147483647,0,0,1,1,2,2,6,6,7,7],"right_children":[2,4,6,-1,-1,-1,8,10,-1,-1,-1],"split_conditions":[2.072095E-1,1.3684899E-1,3.149973E-1,4.721989E-3,8.1393145E-2,3.592553E-2,1.5369008E-1,3.6124003E-1,-1.4242601E-2,-8.993844E-3,8.101584E-3],"split_indices":[42,95,213,0,0,0,95,76,0,0,0],"split_type":[0,0,0,0,0,0,0,0,0,0,0],"sum_hessian":[1.7524876E1,2.2605247E0,1.526435E1,1.2442771E0,1.0162477E0,1.0492926E0,1.4215057E1,3.5556827E0,1.0659375E1,1.3652529E0,2.19043E0],"tree_param":{"num_deleted":"0","num_feature":"334","num_nodes":"11","size_leaf_vector":"1"}},{"base_weights":[1.04300335E-1,3.422733E-2,-2.8342683E-2,3.251941E-2,-1.7769296E-1,2.0571648E-1,-3.801533E-1,-1.0135741E-2,1.5440788E-2,5.5032605E-3,-1.3980284E-2],"categories":[],"categories_nodes":[],"categories_segments":[],"categories_sizes":[],"default_left":[0,0,0,0,0,0,0,0,0,0,0],"id":43,"left_children":[1,-1,3,-1,5,7,9,-1,-1,-1,-1],"loss_changes":[2.5715442E0,0E0,3.074546E0,0E0,1.3321218E0,1.2204123E0,6.140021E-1,0E0,0E0,0E0,0E0],"parents":[2147483647,0,0,2,2,4,4,5,5,6,6],"right_children":[2,-1,4,-1,6,8,10,-1,-1,-1,-1],"split_conditions":[4.2369694E-1,3.422733E-2,1.3008276E-1,3.251941E-2,1.973356E-1,2.7382293E-1,1.4035454E-1,-1.0135741E-2,1.5440788E-2,5.5032605E-3,-1.3980284E-2],"split_indices":[0,0,95,0,76,244,95,0,0,0,0],"split_type":[0,0,0,0,0,0,0,0,0,0,0],"sum_hessian":[1.7467075E1,1.1191905E0,1.6347885E1,1.1943909E0,1.5153495E1,5.231069E0,9.922425E0,1.8619366E0,3.3691328E0,1.161466E0,8.760959E0],"tree_param":{"num_deleted":"0","num_feature":"334","num_nodes":"11","size_leaf_vector":"1"}},{"base_weights":[1.0221425E-3,-2.3426366E-1,3.26279E-2,-1.1628335E-2,1.4368412E-1,3.1201346E-2,-1.1729717E-2],"categories":[],"categories_nodes":[],"categories_segments":[],"categories_sizes":[],"default_left":[1,1,0,0,0,0,0],"id":44,"left_children":[1,3,-1,-1,5,-1,-1],"loss_changes":[4.9321933E0,9.750105E-1,0E0,0E0,2.9504652E0,0E0,0E0],"parents":[2147483647,0,0,1,1,4,4],"right_children":[2,4,-1,-1,6,-1,-1],"split_conditions":[2.4333356E-1,1.461555E-1,3.26279E-2,-1.1628335E-2,1.5591653E-1,3.1201346E-2,-1.1729717E-2],"split_indices":[130,95,0,0,95,0,0],"split_type":[0,0,0,0,0,0,0],"sum_hessian":[1.7295744E1,1.4861953E1,2.4337914E0,1.0554166E1,4.307787E0,1.2563592E0,3.0514278E0],"tree_param":{"num_deleted":"0","num_feature":"334","num_nodes":"7","size_leaf_vector":"1"}},{"base_weights":[5.659264E-4,8.120001E-2,-3.1573236E-1,3.682474E-2,-1.4620428E-2],"categories":[],"categories_nodes":[],"categories_segments":[],"categories_sizes":[],"default_left":[0,0,0,0,0],"id":45,"left_children":[1,-1,3,-1,-1],"loss_changes":[1.6527798E1,0E0,5.177432E0,0E0,0E0],"parents":[2147483647,0,0,2,2],"right_children":[2,-1,4,-1,-1],"split_conditions":[8.508992E-1,8.120001E-2,3.4216216E-1,3.682474E-2,-1.4620428E-2],"split_indices":[100,0,247,0,0],"split_type":[0,0,0,0,0],"sum_hessian":[1.7311216E1,1.0207582E0,1.6290457E1,1.0145644E0,1.5275893E1],"tree_param":{"num_deleted":"0","num_feature":"334","num_nodes":"5","size_leaf_vector":"1"}},{"base_weights":[1.5755248E-1,1.5558304E-1,-1.46775395E-2],"categories":[],"categories_nodes":[],"categories_segments":[],"categories_sizes":[],"default_left":[0,0,0],"id":46,"left_children":[1,-1,-1],"loss_changes":[6.2675262E1,0E0,0E0],"parents":[2147483647,0,0],"right_children":[2,-1,-1],"split_conditions":[8.9035845E-1,1.5558304E-1,-1.46775395E-2],"split_indices":[145,0,0],"split_type":[0,0,0],"sum_hessian":[1.7489853E1,1.1934423E0,1.629641E1],"tree_param":{"num_deleted":"0","num_feature":"334","num_nodes":"3","size_leaf_vector":"1"}},{"base_weights":[-5.02519E-2,-4.2240283E-1,1.6652712E0,7.1309283E-3,-1.4510943E-2,-7.882754E-3,7.7667035E-2],"categories":[],"categories_nodes":[],"categories_segments":[],"categories_sizes":[],"default_left":[1,0,0,0,0,0,0],"id":47,"left_children":[1,3,5,-1,-1,-1,-1],"loss_changes":[1.2303215E1,7.5134397E-1,6.8082724E0,0E0,0E0,0E0,0E0],"parents":[2147483647,0,0,1,1,2,2],"right_children":[2,4,6,-1,-1,-1,-1],"split_conditions":[2.3424448E-1,1.3255289E-1,2.3386106E-1,7.1309283E-3,-1.4510943E-2,-7.882754E-3,7.7667035E-2],"split_indices":[222,95,42,0,0,0,0],"split_type":[0,0,0,0,0,0,0],"sum_hessian":[1.7169157E1,1.4727973E1,2.4411848E0,1.0068713E0,1.3721102E1,1.0224304E0,1.4187542E0],"tree_param":{"num_deleted":"0","num_feature":"334","num_nodes":"7","size_leaf_vector":"1"}},{"base_weights":[1.7292923E-3,6.0236692E-2,-3.6451375E-1,2.178495E-2,-1.4551754E-2],"categories":[],"categories_nodes":[],"categories_segments":[],"categories_sizes":[],"default_left":[0,0,0,0,0],"id":48,"left_children":[1,-1,3,-1,-1],"loss_changes":[1.415687E1,0E0,2.494929E0,0E0,0E0],"parents":[2147483647,0,0,2,2],"right_children":[2,-1,4,-1,-1],"split_conditions":[3.4608367E-1,6.0236692E-2,2.4833088E-1,2.178495E-2,-1.4551754E-2],"split_indices":[21,0,217,0,0],"split_type":[0,0,0,0,0],"sum_hessian":[1.7271664E1,1.9743606E0,1.5297303E1,1.022428E0,1.4274875E1],"tree_param":{"num_deleted":"0","num_feature":"334","num_nodes":"5","size_leaf_vector":"1"}},{"base_weights":[5.4562837E-2,7.8125834E-2,-2.571247E-1,-4.2507702E-1,3.4747742E-2,-1.4546436E-2,7.20444E-3],"categories":[],"categories_nodes":[],"categories_segments":[],"categories_sizes":[],"default_left":[0,0,1,1,0,0,0],"id":49,"left_children":[1,-1,3,5,-1,-1,-1],"loss_changes":[1.5236167E1,0E0,4.591381E0,7.58775E-1,0E0,0E0,0E0],"parents":[2147483647,0,0,2,2,3,3],"right_children":[2,-1,4,6,-1,-1,-1],"split_conditions":[3.0154583E-1,7.8125834E-2,3.044208E-1,2.9323912E-1,3.4747742E-2,-1.4546436E-2,7.20444E-3],"split_indices":[85,0,257,143,0,0,0],"split_type":[0,0,0,0,0,0,0],"sum_hessian":[1.7329905E1,1.0865647E0,1.6243341E1,1.5145783E1,1.0975573E0,1.414522E1,1.0005635E0],"tree_param":{"num_deleted":"0","num_feature":"334","num_nodes":"7","size_leaf_vector":"1"}},{"base_weights":[-5.0406344E-2,7.8738645E-2,-3.7173095E-1,1.0978601E-1,-1.4464556E-2,-9.124871E-3,1.36053525E-2],"categories":[],"categories_nodes":[],"categories_segments":[],"categories_sizes":[],"default_left":[0,0,0,0,0,0,0],"id":50,"left_children":[1,-1,3,5,-1,-1,-1],"loss_changes":[1.659793E1,0E0,9.6222806E-1,7.0775217E-1,0E0,0E0,0E0],"parents":[2147483647,0,0,2,2,3,3],"right_children":[2,-1,4,6,-1,-1,-1],"split_conditions":[3.8974687E-1,7.8738645E-2,1.4159407E-1,1.3274743E-1,-1.4464556E-2,-9.124871E-3,1.36053525E-2],"split_indices":[58,0,95,95,0,0,0],"split_type":[0,0,0,0,0,0,0],"sum_hessian":[1.7174904E1,1.073112E0,1.6101791E1,3.0047238E0,1.3097067E1,1.415337E0,1.5893868E0],"tree_param":{"num_deleted":"0","num_feature":"334","num_nodes":"7","size_leaf_vector":"1"}},{"base_weights":[1.0648824E-1,1.5000893E-1,-1.4676906E-2],"categories":[],"categories_nodes":[],"categories_segments":[],"categories_sizes":[],"default_left":[0,0,0],"id":51,"left_children":[1,-1,-1],"loss_changes":[5.6099518E1,0E0,0E0],"parents":[2147483647,0,0],"right_children":[2,-1,-1],"split_conditions":[4.5847037E-1,1.5000893E-1,-1.4676906E-2],"split_indices":[312,0,0],"split_type":[0,0,0],"sum_hessian":[1.7403807E1,1.0862845E0,1.6317522E1],"tree_param":{"num_deleted":"0","num_feature":"334","num_nodes":"3","size_leaf_vector":"1"}},{"base_weights":[-5.0661013E-2,4.8767563E-2,-3.071955E-1,2.1855466E-2,-1.4516039E-2],"categories":[],"categories_nodes":[],"categories_segments":[],"categories_sizes":[],"default_left":[0,0,0,0,0],"id":52,"left_children":[1,-1,3,-1,-1],"loss_changes":[8.3189535E0,0E0,3.3921795E0,0E0,0E0],"parents":[2147483647,0,0,2,2],"right_children":[2,-1,4,-1,-1],"split_conditions":[3.938956E-1,4.8767563E-2,7.862963E-1,2.1855466E-2,-1.4516039E-2],"split_indices":[257,0,213,0,0],"split_type":[0,0,0,0,0],"sum_hessian":[1.7184437E1,1.5725269E0,1.5611911E1,1.8198465E0,1.3792064E1],"tree_param":{"num_deleted":"0","num_feature":"334","num_nodes":"5","size_leaf_vector":"1"}},{"base_weights":[-1.5648453E-1,7.577476E-2,-1.4639805E-2],"categories":[],"categories_nodes":[],"categories_segments":[],"categories_sizes":[],"default_left":[0,0,0],"id":53,"left_children":[1,-1,-1],"loss_changes":[1.7226686E1,0E0,0E0],"parents":[2147483647,0,0],"right_children":[2,-1,-1],"split_conditions":[2.927621E-1,7.577476E-2,-1.4639805E-2],"split_indices":[21,0,0],"split_type":[0,0,0],"sum_hessian":[1.6986868E1,1.1404082E0,1.584646E1],"tree_param":{"num_deleted":"0","num_feature":"334","num_nodes":"3","size_leaf_vector":"1"}},{"base_weights":[5.456247E-2,2.0094192E0,-3.6120188E-1,9.5343135E-2,3.9324495E-3,-1.4523047E-2,2.1176279E-2],"categories":[],"categories_nodes":[],"categories_segments":[],"categories_sizes":[],"default_left":[0,0,1,0,0,0,0],"id":54,"left_children":[1,3,5,-1,-1,-1,-1],"loss_changes":[1.5622426E1,6.9742584E0,2.4349759E0,0E0,0E0,0E0,0E0],"parents":[2147483647,0,0,1,1,2,2],"right_children":[2,4,6,-1,-1,-1,-1],"split_conditions":[7.196797E-1,2.630829E-1,2.5329357E-1,9.5343135E-2,3.9324495E-3,-1.4523047E-2,2.1176279E-2],"split_indices":[21,42,217,0,0,0,0],"split_type":[0,0,0,0,0,0,0],"sum_hessian":[1.7328442E1,2.3668451E0,1.4961596E1,1.0324724E0,1.3343728E0,1.3906282E1,1.0553132E0],"tree_param":{"num_deleted":"0","num_feature":"334","num_nodes":"7","size_leaf_vector":"1"}},{"base_weights":[-1.05497964E-1,-1.401893E-2,3.0824628E-1,-9.901039E-3,5.053859E-1,-8.887066E-3,7.324096E-1,-8.004499E-3,3.0004023E-2],"categories":[],"categories_nodes":[],"categories_segments":[],"categories_sizes":[],"default_left":[0,0,0,0,0,0,0,0,0],"id":55,"left_children":[1,-1,3,-1,5,-1,7,-1,-1],"loss_changes":[2.8650148E0,0E0,1.3096304E0,0E0,1.5516908E0,0E0,1.8728917E0,0E0,0E0],"parents":[2147483647,0,0,2,2,4,4,6,6],"right_children":[2,-1,4,-1,6,-1,8,-1,-1],"split_conditions":[7.778964E-1,-1.401893E-2,2.65992E-1,-9.901039E-3,3.010999E-1,-8.887066E-3,2.5103027E-1,-8.004499E-3,3.0004023E-2],"split_indices":[95,0,42,0,127,0,244,0,0],"split_type":[0,0,0,0,0,0,0,0,0],"sum_hessian":[1.717707E1,9.094727E0,8.082343E0,1.7481675E0,6.3341756E0,1.3306787E0,5.003497E0,1.0580257E0,3.9454713E0],"tree_param":{"num_deleted":"0","num_feature":"334","num_nodes":"9","size_leaf_vector":"1"}},{"base_weights":[-5.0577868E-2,-1.4592605E-2,6.594878E-2],"categories":[],"categories_nodes":[],"categories_segments":[],"categories_sizes":[],"default_left":[1,0,0],"id":56,"left_children":[1,-1,-1],"loss_changes":[1.8887794E1,0E0,0E0],"parents":[2147483647,0,0],"right_children":[2,-1,-1],"split_conditions":[2.6045147E-1,-1.4592605E-2,6.594878E-2],"split_indices":[21,0,0],"split_type":[0,0,0],"sum_hessian":[1.7179308E1,1.5046857E1,2.1324513E0],"tree_param":{"num_deleted":"0","num_feature":"334","num_nodes":"3","size_leaf_vector":"1"}},{"base_weights":[1.7028747E-3,1.4769627E0,-3.5653523E-1,1.2148634E-2,6.552357E-2,7.096723E-3,-4.1416368E-1,-1.44104455E-2,6.909286E-3],"categories":[],"categories_nodes":[],"categories_segments":[],"categories_sizes":[],"default_left":[0,1,0,0,0,0,1,0,0],"id":57,"left_children":[1,3,5,-1,-1,-1,7,-1,-1],"loss_changes":[1.0183173E1,1.9693203E0,6.2800026E-1,0E0,0E0,0E0,7.2900987E-1,0E0,0E0],"parents":[2147483647,0,0,1,1,2,2,6,6],"right_children":[2,4,6,-1,-1,-1,8,-1,-1],"split_conditions":[3.4261137E-1,1.5369008E-1,2.9201576E-1,1.2148634E-2,6.552357E-2,7.096723E-3,1.9215436E-1,-1.44104455E-2,6.909286E-3],"split_indices":[130,95,21,0,0,0,95,0,0],"split_type":[0,0,0,0,0,0,0,0,0],"sum_hessian":[1.7271881E1,2.7645087E0,1.4507372E1,1.7238712E0,1.0406374E0,1.0098158E0,1.3497557E1,1.2471458E1,1.0260981E0],"tree_param":{"num_deleted":"0","num_feature":"334","num_nodes":"9","size_leaf_vector":"1"}},{"base_weights":[-4.7714676E-4,-1.4034236E-2,5.172272E-1,4.4353444E-2,1.7743817E-1,-9.853633E-3,3.7090087E-1,-8.012635E-3,1.6636334E-2],"categories":[],"categories_nodes":[],"categories_segments":[],"categories_sizes":[],"default_left":[0,0,0,0,0,0,0,0,0],"id":58,"left_children":[1,-1,3,-1,5,-1,7,-1,-1],"loss_changes":[4.680535E0,0E0,2.7355542E0,0E0,8.967575E-1,0E0,8.74193E-1,0E0,0E0],"parents":[2147483647,0,0,2,2,4,4,6,6],"right_children":[2,-1,4,-1,6,-1,8,-1,-1],"split_conditions":[7.778964E-1,-1.4034236E-2,1.5559408E-1,4.4353444E-2,8.197025E-1,-9.853633E-3,3.010999E-1,-8.012635E-3,1.6636334E-2],"split_indices":[95,0,76,0,244,0,127,0,0],"split_type":[0,0,0,0,0,0,0,0,0],"sum_hessian":[1.7345821E1,9.1670885E0,8.178734E0,1.2608547E0,6.9178786E0,1.7206702E0,5.1972084E0,1.0600729E0,4.1371355E0],"tree_param":{"num_deleted":"0","num_feature":"334","num_nodes":"9","size_leaf_vector":"1"}},{"base_weights":[5.5067033E-2,-3.1437853E-1,9.07332E-2,-1.4606377E-2,3.7021603E-2],"categories":[],"categories_nodes":[],"categories_segments":[],"categories_sizes":[],"default_left":[1,1,0,0,0],"id":59,"left_children":[1,3,-1,-1,-1],"loss_changes":[2.1040155E1,5.1929517E0,0E0,0E0,0E0],"parents":[2147483647,0,0,1,1],"right_children":[2,4,-1,-1,-1],"split_conditions":[3.2362276E-1,2.9002184E-1,9.07332E-2,-1.4606377E-2,3.7021603E-2],"split_indices":[100,247,0,0,0],"split_type":[0,0,0,0,0],"sum_hessian":[1.7312614E1,1.6192135E1,1.1204785E0,1.5185935E1,1.0062E0],"tree_param":{"num_deleted":"0","num_feature":"334","num_nodes":"5","size_leaf_vector":"1"}},{"base_weights":[3.190281E-3,1.0625161E-1,-1.46426475E-2],"categories":[],"categories_nodes":[],"categories_segments":[],"categories_sizes":[],"default_left":[0,0,0],"id":60,"left_children":[1,-1,-1],"loss_changes":[3.340187E1,0E0,0E0],"parents":[2147483647,0,0],"right_children":[2,-1,-1],"split_conditions":[4.791737E-1,1.0625161E-1,-1.46426475E-2],"split_indices":[58,0,0],"split_type":[0,0,0],"sum_hessian":[1.7219702E1,1.342304E0,1.58773985E1],"tree_param":{"num_deleted":"0","num_feature":"334","num_nodes":"3","size_leaf_vector":"1"}},{"base_weights":[-4.9944434E-2,-3.6792278E-1,6.360203E-2,-4.2192802E-1,7.0715216E-3,7.027684E-3,-1.4501168E-2],"categories":[],"categories_nodes":[],"categories_segments":[],"categories_sizes":[],"default_left":[1,1,0,0,0,0,0],"id":61,"left_children":[1,3,-1,5,-1,-1,-1],"loss_changes":[1.3308341E1,6.434853E-1,0E0,7.452767E-1,0E0,0E0,0E0],"parents":[2147483647,0,0,1,1,3,3],"right_children":[2,4,-1,6,-1,-1,-1],"split_conditions":[3.1338122E-1,2.6250955E-1,6.360203E-2,1.5408954E-1,7.0715216E-3,7.027684E-3,-1.4501168E-2],"split_indices":[0,54,0,76,0,0,0],"split_type":[0,0,0,0,0,0,0],"sum_hessian":[1.7156542E1,1.568816E1,1.4683814E0,1.4676169E1,1.0119903E0,1.0157833E0,1.3660386E1],"tree_param":{"num_deleted":"0","num_feature":"334","num_nodes":"7","size_leaf_vector":"1"}},{"base_weights":[1.5370572E-1,-1.4569402E-2,2.5553422E0,5.396253E-3,1.0364108E-1],"categories":[],"categories_nodes":[],"categories_segments":[],"categories_sizes":[],"default_left":[1,0,1,0,0],"id":62,"left_children":[1,-1,3,-1,-1],"loss_changes":[2.9785881E1,0E0,8.0698185E0,0E0,0E0],"parents":[2147483647,0,0,2,2],"right_children":[2,-1,4,-1,-1],"split_conditions":[2.332678E-1,-1.4569402E-2,1.4035454E-1,5.396253E-3,1.0364108E-1],"split_indices":[130,0,95,0,0],"split_type":[0,0,0,0,0],"sum_hessian":[1.7590057E1,1.4521893E1,3.0681653E0,1.1721599E0,1.8960054E0],"tree_param":{"num_deleted":"0","num_feature":"334","num_nodes":"5","size_leaf_vector":"1"}},{"base_weights":[-1.549514E-1,7.91295E-2,-1.4635249E-2],"categories":[],"categories_nodes":[],"categories_segments":[],"categories_sizes":[],"default_left":[0,0,0],"id":63,"left_children":[1,-1,-1],"loss_changes":[1.7939878E1,0E0,0E0],"parents":[2147483647,0,0],"right_children":[2,-1,-1],"split_conditions":[3.530911E-1,7.91295E-2,-1.4635249E-2],"split_indices":[313,0,0],"split_type":[0,0,0],"sum_hessian":[1.6913715E1,1.0640408E0,1.5849674E1],"tree_param":{"num_deleted":"0","num_feature":"334","num_nodes":"3","size_leaf_vector":"1"}},{"base_weights":[5.4163888E-2,-1.4641018E-2,1.0879196E-1],"categories":[],"categories_nodes":[],"categories_segments":[],"categories_sizes":[],"default_left":[1,0,0],"id":64,"left_children":[1,-1,-1],"loss_changes":[3.7290054E1,0E0,0E0],"parents":[2147483647,0,0],"right_children":[2,-1,-1],"split_conditions":[2.809602E-1,-1.4641018E-2,1.0879196E-1],"split_indices":[313,0,0],"split_type":[0,0,0],"sum_hessian":[1.733911E1,1.5803776E1,1.5353334E0],"tree_param":{"num_deleted":"0","num_feature":"334","num_nodes":"3","size_leaf_vector":"1"}},{"base_weights":[-1.0346808E-1,6.6925555E-1,-4.0715897E-1,-1.0027402E-2,1.2554948E0,7.1151755E-3,-1.4325934E-2,5.183852E-2,1.2802539E-2],"categories":[],"categories_nodes":[],"categories_segments":[],"categories_sizes":[],"default_left":[0,0,0,0,0,0,0,0,0],"id":65,"left_children":[1,3,5,-1,7,-1,-1,-1,-1],"loss_changes":[4.5182676E0,3.6451075E0,7.3036885E-1,0E0,7.0001984E-1,0E0,0E0,0E0,0E0],"parents":[2147483647,0,0,1,1,2,2,4,4],"right_children":[2,4,6,-1,8,-1,-1,-1,-1],"split_conditions":[1.4803024E-1,2.1536216E-1,2.5987205E-1,-1.0027402E-2,2.887025E-1,7.1151755E-3,-1.4325934E-2,5.183852E-2,1.2802539E-2],"split_indices":[95,42,217,0,76,0,0,0,0],"split_type":[0,0,0,0,0,0,0,0,0],"sum_hessian":[1.7092598E1,4.4827538E0,1.2609844E1,1.8115892E0,2.6711645E0,1.0082251E0,1.160162E1,1.0102243E0,1.6609403E0],"tree_param":{"num_deleted":"0","num_feature":"334","num_nodes":"9","size_leaf_vector":"1"}},{"base_weights":[-2.6405838E-1,1.9223392E-2,-3.6662784E-1,6.8060206E-3,-4.208286E-1,6.711376E-3,-1.4482429E-2],"categories":[],"categories_nodes":[],"categories_segments":[],"categories_sizes":[],"default_left":[0,0,0,0,0,0,0],"id":66,"left_children":[1,-1,3,-1,5,-1,-1],"loss_changes":[1.882307E0,0E0,6.287863E-1,0E0,7.2826695E-1,0E0,0E0],"parents":[2147483647,0,0,2,2,4,4],"right_children":[2,-1,4,-1,6,-1,-1],"split_conditions":[8.181472E-1,1.9223392E-2,3.4263045E-1,6.8060206E-3,2.3139605E-1,6.711376E-3,-1.4482429E-2],"split_indices":[239,0,257,0,244,0,0],"split_type":[0,0,0,0,0,0,0],"sum_hessian":[1.6750257E1,1.1711792E0,1.5579079E1,1.0371091E0,1.4541969E1,1.0455387E0,1.3496431E1],"tree_param":{"num_deleted":"0","num_feature":"334","num_nodes":"7","size_leaf_vector":"1"}},{"base_weights":[1.0581305E-1,-4.3172047E-1,1.389034E-1,-1.4622199E-2,7.1286294E-3],"categories":[],"categories_nodes":[],"categories_segments":[],"categories_sizes":[],"default_left":[1,1,0,0,0],"id":67,"left_children":[1,3,-1,-1,-1],"loss_changes":[4.679668E1,7.6358724E-1,0E0,0E0,0E0],"parents":[2147483647,0,0,1,1],"right_children":[2,4,-1,-1,-1],"split_conditions":[3.6180297E-1,2.9783258E-1,1.389034E-1,-1.4622199E-2,7.1286294E-3],"split_indices":[325,291,0,0,0],"split_type":[0,0,0,0,0],"sum_hessian":[1.7420414E1,1.6378998E1,1.0414166E0,1.5371934E1,1.0070645E0],"tree_param":{"num_deleted":"0","num_feature":"334","num_nodes":"5","size_leaf_vector":"1"}},{"base_weights":[2.185119E-3,-1.8889289E-1,3.7742015E-2,3.1788796E-2,-3.5629424E-1,-1.4492996E-2,2.220335E-2],"categories":[],"categories_nodes":[],"categories_segments":[],"categories_sizes":[],"default_left":[1,0,0,0,1,0,0],"id":68,"left_children":[1,3,-1,-1,5,-1,-1],"loss_changes":[4.6184835E0,3.8709111E0,0E0,0E0,2.5106635E0,0E0,0E0],"parents":[2147483647,0,0,1,1,4,4],"right_children":[2,4,-1,-1,6,-1,-1],"split_conditions":[2.7683794E-1,2.4982587E-1,3.7742015E-2,3.1788796E-2,3.1524947E-1,-1.4492996E-2,2.220335E-2],"split_indices":[130,222,0,0,290,0,0],"split_type":[0,0,0,0,0,0,0],"sum_hessian":[1.7255688E1,1.5714393E1,1.5412954E0,1.2277418E0,1.448665E1,1.3486265E1,1.0003852E0],"tree_param":{"num_deleted":"0","num_feature":"334","num_nodes":"7","size_leaf_vector":"1"}},{"base_weights":[1.5420061E-1,1.7201978E0,-1.7917912E-1,4.6272767E-3,7.745537E-2,3.688342E-2,-3.5365462E-1,3.130282E-2,-1.4235468E-2,-8.968485E-3,7.9082595E-3],"categories":[],"categories_nodes":[],"categories_segments":[],"categories_sizes":[],"default_left":[0,1,0,0,0,0,0,0,0,0,0],"id":69,"left_children":[1,3,5,-1,-1,-1,7,9,-1,-1,-1],"loss_changes":[1.0007722E1,4.129095E0,4.4220757E0,0E0,0E0,0E0,7.226192E-1,4.2963848E-1,0E0,0E0,0E0],"parents":[2147483647,0,0,1,1,2,2,6,6,7,7],"right_children":[2,4,6,-1,-1,-1,8,10,-1,-1,-1],"split_conditions":[2.072095E-1,1.3684899E-1,3.132698E-1,4.6272767E-3,7.745537E-2,3.688342E-2,1.5369008E-1,3.6124003E-1,-1.4235468E-2,-8.968485E-3,7.9082595E-3],"split_indices":[42,95,213,0,0,0,95,76,0,0,0],"split_type":[0,0,0,0,0,0,0,0,0,0,0],"sum_hessian":[1.7578861E1,2.355308E0,1.5223554E1,1.2544624E0,1.1008457E0,1.01141E0,1.4212144E1,3.572926E0,1.0639217E1,1.3569584E0,2.2159677E0],"tree_param":{"num_deleted":"0","num_feature":"334","num_nodes":"11","size_leaf_vector":"1"}},{"base_weights":[1.0198781E-1,3.3255357E-2,-2.907502E-2,3.1535316E-2,-1.77234E-1,1.9972935E-1,-3.791097E-1,-1.0119215E-2,1.5025022E-2,5.3799995E-3,-1.3961243E-2],"categories":[],"categories_nodes":[],"categories_segments":[],"categories_sizes":[],"default_left":[0,0,0,0,0,0,0,0,0,0,0],"id":70,"left_children":[1,-1,3,-1,5,7,9,-1,-1,-1,-1],"loss_changes":[2.4770594E0,0E0,2.9667084E0,0E0,1.3034103E0,1.1846588E0,6.0620844E-1,0E0,0E0,0E0,0E0],"parents":[2147483647,0,0,2,2,4,4,5,5,6,6],"right_children":[2,-1,4,-1,6,8,10,-1,-1,-1,-1],"split_conditions":[4.2369694E-1,3.3255357E-2,1.3008276E-1,3.1535316E-2,1.973356E-1,2.7382293E-1,1.4035454E-1,-1.0119215E-2,1.5025022E-2,5.3799995E-3,-1.3961243E-2],"split_indices":[0,0,95,0,76,244,95,0,0,0,0],"split_type":[0,0,0,0,0,0,0,0,0,0,0],"sum_hessian":[1.753296E1,1.1607643E0,1.6372196E1,1.2395438E0,1.5132653E1,5.2813673E0,9.851286E0,1.8541533E0,3.4272137E0,1.1737932E0,8.677493E0],"tree_param":{"num_deleted":"0","num_feature":"334","num_nodes":"11","size_leaf_vector":"1"}},{"base_weights":[6.506171E-5,-2.3337269E-1,3.153632E-2,-1.1599495E-2,1.4031555E-1,3.0314269E-2,-1.1711114E-2],"categories":[],"categories_nodes":[],"categories_segments":[],"categories_sizes":[],"default_left":[1,1,0,0,0,0,0],"id":71,"left_children":[1,3,-1,-1,5,-1,-1],"loss_changes":[4.74248E0,9.601218E-1,0E0,0E0,2.8575568E0,0E0,0E0],"parents":[2147483647,0,0,1,1,4,4],"right_children":[2,4,-1,-1,6,-1,-1],"split_conditions":[2.4333356E-1,1.461555E-1,3.153632E-2,-1.1599495E-2,1.5591653E-1,3.0314269E-2,-1.1711114E-2],"split_indices":[130,95,0,0,95,0,0],"split_type":[0,0,0,0,0,0,0],"sum_hessian":[1.7327534E1,1.4815336E1,2.5121982E0,1.0481439E1,4.333898E0,1.2993215E0,3.0345764E0],"tree_param":{"num_deleted":"0","num_feature":"334","num_nodes":"7","size_leaf_vector":"1"}},{"base_weights":[1.3096398E-3,7.723393E-2,-3.14283E-1,3.5811126E-2,-1.4605749E-2],"categories":[],"categories_nodes":[],"categories_segments":[],"categories_sizes":[],"default_left":[0,0,0,0,0],"id":72,"left_children":[1,-1,3,-1,-1],"loss_changes":[1.5658094E1,0E0,5.0518317E0,0E0,0E0],"parents":[2147483647,0,0,2,2],"right_children":[2,-1,4,-1,-1],"split_conditions":[8.508992E-1,7.723393E-2,3.4216216E-1,3.5811126E-2,-1.4605749E-2],"split_indices":[100,0,247,0,0],"split_type":[0,0,0,0,0],"sum_hessian":[1.7285378E1,1.1064541E0,1.6178925E1,1.0537865E0,1.5125137E1],"tree_param":{"num_deleted":"0","num_feature":"334","num_nodes":"5","size_leaf_vector":"1"}},{"base_weights":[1.5629427E-1,1.4179039E-1,-1.4663273E-2],"categories":[],"categories_nodes":[],"categories_segments":[],"categories_sizes":[],"default_left":[0,0,0],"id":73,"left_children":[1,-1,-1],"loss_changes":[5.6905617E1,0E0,0E0],"parents":[2147483647,0,0],"right_children":[2,-1,-1],"split_conditions":[8.9035845E-1,1.4179039E-1,-1.4663273E-2],"split_indices":[145,0,0],"split_type":[0,0,0],"sum_hessian":[1.7519482E1,1.3844384E0,1.6135042E1],"tree_param":{"num_deleted":"0","num_feature":"334","num_nodes":"3","size_leaf_vector":"1"}},{"base_weights":[-4.9914017E-2,-4.2148733E-1,1.5974876E0,6.9769714E-3,-1.4495459E-2,-7.973175E-3,7.4406095E-2],"categories":[],"categories_nodes":[],"categories_segments":[],"categories_sizes":[],"default_left":[1,0,0,0,0,0,0],"id":74,"left_children":[1,3,5,-1,-1,-1,-1],"loss_changes":[1.1786795E1,7.420702E-1,6.498111E0,0E0,0E0,0E0,0E0],"parents":[2147483647,0,0,1,1,2,2],"right_children":[2,4,6,-1,-1,-1,-1],"split_conditions":[2.3424448E-1,1.3255289E-1,7.70987E-1,6.9769714E-3,-1.4495459E-2,-7.973175E-3,7.4406095E-2],"split_indices":[222,95,67,0,0,0,0],"split_type":[0,0,0,0,0,0,0],"sum_hessian":[1.7155403E1,1.4605309E1,2.550094E0,1.0201898E0,1.3585119E1,1.0444198E0,1.5056742E0],"tree_param":{"num_deleted":"0","num_feature":"334","num_nodes":"7","size_leaf_vector":"1"}},{"base_weights":[1.4545851E-3,5.726502E-2,-3.6330754E-1,2.1318616E-2,-1.453702E-2],"categories":[],"categories_nodes":[],"categories_segments":[],"categories_sizes":[],"default_left":[0,0,0,0,0],"id":75,"left_children":[1,-1,3,-1,-1],"loss_changes":[1.3411398E1,0E0,2.4520538E0,0E0,0E0],"parents":[2147483647,0,0,2,2],"right_children":[2,-1,4,-1,-1],"split_conditions":[3.4608367E-1,5.726502E-2,2.4833088E-1,2.1318616E-2,-1.453702E-2],"split_indices":[21,0,217,0,0],"split_type":[0,0,0,0,0],"sum_hessian":[1.7279684E1,2.094457E0,1.5185228E1,1.0475314E0,1.4137696E1],"tree_param":{"num_deleted":"0","num_feature":"334","num_nodes":"5","size_leaf_vector":"1"}},{"base_weights":[5.4525137E-2,7.435994E-2,-2.557064E-1,-4.241716E-1,3.3787068E-2,7.1046166E-3,-1.4531653E-2],"categories":[],"categories_nodes":[],"categories_segments":[],"categories_sizes":[],"default_left":[0,0,1,0,0,0,0],"id":76,"left_children":[1,-1,3,5,-1,-1,-1],"loss_changes":[1.4418733E1,0E0,4.471969E0,7.523136E-1,0E0,0E0,0E0],"parents":[2147483647,0,0,2,2,3,3],"right_children":[2,-1,4,6,-1,-1,-1],"split_conditions":[3.0154583E-1,7.435994E-2,3.044208E-1,2.6007432E-1,3.3787068E-2,7.1046166E-3,-1.4531653E-2],"split_indices":[85,0,257,54,0,0,0],"split_type":[0,0,0,0,0,0,0],"sum_hessian":[1.732993E1,1.1731609E0,1.6156769E1,1.5018949E1,1.137819E0,1.0091256E0,1.4009823E1],"tree_param":{"num_deleted":"0","num_feature":"334","num_nodes":"7","size_leaf_vector":"1"}},{"base_weights":[-4.986592E-2,7.8653604E-2,-3.7143353E-1,1.06189035E-1,-1.4456207E-2,-9.110695E-3,1.3296471E-2],"categories":[],"categories_nodes":[],"categories_segments":[],"categories_sizes":[],"default_left":[0,0,0,0,0,0,0],"id":77,"left_children":[1,-1,3,5,-1,-1,-1],"loss_changes":[1.6569925E1,0E0,9.5207834E-1,6.908859E-1,0E0,0E0,0E0],"parents":[2147483647,0,0,2,2,3,3],"right_children":[2,-1,4,6,-1,-1,-1],"split_conditions":[3.7057844E-1,7.8653604E-2,1.4159407E-1,1.3274743E-1,-1.4456207E-2,-9.110695E-3,1.3296471E-2],"split_indices":[58,0,95,95,0,0,0],"split_type":[0,0,0,0,0,0,0],"sum_hessian":[1.7153645E1,1.0743736E0,1.6079271E1,3.026968E0,1.3052303E1,1.410494E0,1.6164739E0],"tree_param":{"num_deleted":"0","num_feature":"334","num_nodes":"7","size_leaf_vector":"1"}},{"base_weights":[1.0619778E-1,1.3776916E-1,-1.4662772E-2],"categories":[],"categories_nodes":[],"categories_segments":[],"categories_sizes":[],"default_left":[0,0,0],"id":78,"left_children":[1,-1,-1],"loss_changes":[5.1378586E1,0E0,0E0],"parents":[2147483647,0,0],"right_children":[2,-1,-1],"split_conditions":[4.5847037E-1,1.3776916E-1,-1.4662772E-2],"split_indices":[312,0,0],"split_type":[0,0,0],"sum_hessian":[1.7408882E1,1.2517426E0,1.6157139E1],"tree_param":{"num_deleted":"0","num_feature":"334","num_nodes":"3","size_leaf_vector":"1"}},{"base_weights":[-5.0428003E-2,4.6771377E-2,-3.0592424E-1,2.1269353E-2,-1.4500775E-2],"categories":[],"categories_nodes":[],"categories_segments":[],"categories_sizes":[],"default_left":[0,0,0,0,0],"id":79,"left_children":[1,-1,3,-1,-1],"loss_changes":[7.950692E0,0E0,3.3177547E0,0E0,0E0],"parents":[2147483647,0,0,2,2],"right_children":[2,-1,4,-1,-1],"split_conditions":[3.938956E-1,4.6771377E-2,7.862963E-1,2.1269353E-2,-1.4500775E-2],"split_indices":[257,0,213,0,0],"split_type":[0,0,0,0,0],"sum_hessian":[1.71748E1,1.6539394E0,1.5520861E1,1.8639011E0,1.365696E1],"tree_param":{"num_deleted":"0","num_feature":"334","num_nodes":"5","size_leaf_vector":"1"}},{"base_weights":[-1.550233E-1,7.226363E-2,-1.4625705E-2],"categories":[],"categories_nodes":[],"categories_segments":[],"categories_sizes":[],"default_left":[0,0,0],"id":80,"left_children":[1,-1,-1],"loss_changes":[1.6448025E1,0E0,0E0],"parents":[2147483647,0,0],"right_children":[2,-1,-1],"split_conditions":[2.927621E-1,7.226363E-2,-1.4625705E-2],"split_indices":[21,0,0],"split_type":[0,0,0],"sum_hessian":[1.6917025E1,1.2252226E0,1.5691801E1],"tree_param":{"num_deleted":"0","num_feature":"334","num_nodes":"3","size_leaf_vector":"1"}},{"base_weights":[5.4626293E-2,1.930422E0,-3.5995844E-1,9.029164E-2,3.8368797E-3,-1.4513428E-2,2.2086145E-2],"categories":[],"categories_nodes":[],"categories_segments":[],"categories_sizes":[],"default_left":[0,0,1,0,0,0,0],"id":81,"left_children":[1,3,5,-1,-1,-1,-1],"loss_changes":[1.4945056E1,6.373658E0,2.5074823E0,0E0,0E0,0E0,0E0],"parents":[2147483647,0,0,1,1,2,2],"right_children":[2,4,6,-1,-1,-1,-1],"split_conditions":[7.196797E-1,2.630829E-1,2.5987205E-1,9.029164E-2,3.8368797E-3,-1.4513428E-2,2.2086145E-2],"split_indices":[21,42,217,0,0,0,0],"split_type":[0,0,0,0,0,0,0],"sum_hessian":[1.7324059E1,2.4740224E0,1.4850036E1,1.1285535E0,1.345469E0,1.38447895E1,1.0052464E0],"tree_param":{"num_deleted":"0","num_feature":"334","num_nodes":"7","size_leaf_vector":"1"}},{"base_weights":[-1.0606857E-1,-1.4000025E-2,2.979411E-1,-9.873649E-3,4.880696E-1,-8.8648265E-3,7.0533115E-1,-7.995871E-3,2.8797157E-2],"categories":[],"categories_nodes":[],"categories_segments":[],"categories_sizes":[],"default_left":[0,0,0,0,0,0,0,0,0],"id":82,"left_children":[1,-1,3,-1,5,-1,7,-1,-1],"loss_changes":[2.790431E0,0E0,1.2566957E0,0E0,1.4779243E0,0E0,1.7733676E0,0E0,0E0],"parents":[2147483647,0,0,2,2,4,4,6,6],"right_children":[2,-1,4,-1,6,-1,8,-1,-1],"split_conditions":[7.778964E-1,-1.4000025E-2,2.65992E-1,-9.873649E-3,3.010999E-1,-8.8648265E-3,2.5103027E-1,-7.995871E-3,2.8797157E-2],"split_indices":[95,0,42,0,127,0,244,0,0],"split_type":[0,0,0,0,0,0,0,0,0],"sum_hessian":[1.7199427E1,9.006016E0,8.193412E0,1.7362005E0,6.457211E0,1.3235788E0,5.133632E0,1.0558535E0,4.077779E0],"tree_param":{"num_deleted":"0","num_feature":"334","num_nodes":"9","size_leaf_vector":"1"}},{"base_weights":[-5.0463505E-2,-1.457776E-2,2.0778315E0,-8.022109E-3,9.877579E-2],"categories":[],"categories_nodes":[],"categories_segments":[],"categories_sizes":[],"default_left":[1,0,0,0,0],"id":83,"left_children":[1,-1,3,-1,-1],"loss_changes":[1.785137E1,0E0,1.021325E1,0E0,0E0],"parents":[2147483647,0,0,2,2],"right_children":[2,-1,4,-1,-1],"split_conditions":[2.6045147E-1,-1.457776E-2,3.0734175E-1,-8.022109E-3,9.877579E-2],"split_indices":[21,0,42,0,0],"split_type":[0,0,0,0,0],"sum_hessian":[1.7172052E1,1.4895938E1,2.2761142E0,1.0427383E0,1.2333758E0],"tree_param":{"num_deleted":"0","num_feature":"334","num_nodes":"5","size_leaf_vector":"1"}},{"base_weights":[1.8589295E-3,5.0334852E-2,-3.0314317E-1,-4.1933158E-1,2.1059405E-2,7.033719E-3,-1.4474691E-2],"categories":[],"categories_nodes":[],"categories_segments":[],"categories_sizes":[],"default_left":[0,0,1,0,0,0,0],"id":84,"left_children":[1,-1,3,5,-1,-1,-1],"loss_changes":[9.845366E0,0E0,2.19794E0,7.4229383E-1,0E0,0E0,0E0],"parents":[2147483647,0,0,2,2,3,3],"right_children":[2,-1,4,6,-1,-1,-1],"split_conditions":[2.900526E-1,5.0334852E-2,2.95266E-1,2.9201576E-1,2.1059405E-2,7.033719E-3,-1.4474691E-2],"split_indices":[130,0,171,21,0,0,0],"split_type":[0,0,0,0,0,0,0],"sum_hessian":[1.7265285E1,1.965259E0,1.5300028E1,1.4237081E1,1.0629464E0,1.0152606E0,1.3221821E1],"tree_param":{"num_deleted":"0","num_feature":"334","num_nodes":"7","size_leaf_vector":"1"}},{"base_weights":[-1.677057E-3,-1.4015337E-2,5.0249565E-1,4.2755675E-2,1.7129813E-1,-9.881814E-3,3.627124E-1,-8.700779E-3,1.7601468E-2],"categories":[],"categories_nodes":[],"categories_segments":[],"categories_sizes":[],"default_left":[0,0,0,0,0,0,0,0,0],"id":85,"left_children":[1,-1,3,-1,5,-1,7,-1,-1],"loss_changes":[4.549694E0,0E0,2.6003063E0,0E0,8.848474E-1,0E0,1.0844827E0,0E0,0E0],"parents":[2147483647,0,0,2,2,4,4,6,6],"right_children":[2,-1,4,-1,6,-1,8,-1,-1],"split_conditions":[7.778964E-1,-1.4015337E-2,1.5559408E-1,4.2755675E-2,2.65992E-1,-9.881814E-3,3.010999E-1,-8.700779E-3,1.7601468E-2],"split_indices":[95,0,76,0,42,0,127,0,0],"split_type":[0,0,0,0,0,0,0,0,0],"sum_hessian":[1.7385475E1,9.077567E0,8.307908E0,1.3219386E0,6.9859695E0,1.7327325E0,5.2532372E0,1.2668717E0,3.9863656E0],"tree_param":{"num_deleted":"0","num_feature":"334","num_nodes":"9","size_leaf_vector":"1"}},{"base_weights":[5.5305637E-2,8.5762255E-2,-3.1290558E-1,-1.4591577E-2,3.6005404E-2],"categories":[],"categories_nodes":[],"categories_segments":[],"categories_sizes":[],"default_left":[0,0,1,0,0],"id":86,"left_children":[1,-1,3,-1,-1],"loss_changes":[1.9787437E1,0E0,5.066844E0,0E0,0E0],"parents":[2147483647,0,0,2,2],"right_children":[2,-1,4,-1,-1],"split_conditions":[4.254446E-1,8.5762255E-2,2.9002184E-1,-1.4591577E-2,3.6005404E-2],"split_indices":[100,0,247,0,0],"split_type":[0,0,0,0,0],"sum_hessian":[1.7302542E1,1.2234838E0,1.6079058E1,1.5033916E1,1.0451418E0],"tree_param":{"num_deleted":"0","num_feature":"334","num_nodes":"5","size_leaf_vector":"1"}},{"base_weights":[3.5608546E-3,9.923463E-2,-1.4628243E-2],"categories":[],"categories_nodes":[],"categories_segments":[],"categories_sizes":[],"default_left":[0,0,0],"id":87,"left_children":[1,-1,-1],"loss_changes":[3.115545E1,0E0,0E0],"parents":[2147483647,0,0],"right_children":[2,-1,-1],"split_conditions":[4.791737E-1,9.923463E-2,-1.4628243E-2],"split_indices":[58,0,0],"split_type":[0,0,0],"sum_hessian":[1.7202982E1,1.484132E0,1.571885E1],"tree_param":{"num_deleted":"0","num_feature":"334","num_nodes":"3","size_leaf_vector":"1"}},{"base_weights":[-4.9478754E-2,-3.6673397E-1,6.0592473E-2,-4.2099962E-1,6.9757304E-3,6.8980823E-3,-1.4485742E-2],"categories":[],"categories_nodes":[],"categories_segments":[],"categories_sizes":[],"default_left":[1,1,0,0,0,0,0],"id":88,"left_children":[1,3,-1,5,-1,-1,-1],"loss_changes":[1.2647309E1,6.3681316E-1,0E0,7.3724604E-1,0E0,0E0,0E0],"parents":[2147483647,0,0,1,1,3,3],"right_children":[2,4,-1,6,-1,-1,-1],"split_conditions":[3.1338122E-1,2.6250955E-1,6.0592473E-2,1.5408954E-1,6.9757304E-3,6.8980823E-3,-1.4485742E-2],"split_indices":[0,54,0,76,0,0,0],"split_type":[0,0,0,0,0,0,0],"sum_hessian":[1.7137215E1,1.5572412E1,1.5648035E0,1.4552115E1,1.0202961E0,1.027076E0,1.352504E1],"tree_param":{"num_deleted":"0","num_feature":"334","num_nodes":"7","size_leaf_vector":"1"}},{"base_weights":[1.5115993E-1,-1.4554725E-2,2.4066632E0,5.313168E-3,9.602005E-2],"categories":[],"categories_nodes":[],"categories_segments":[],"categories_sizes":[],"default_left":[1,0,1,0,0],"id":89,"left_children":[1,-1,3,-1,-1],"loss_changes":[2.7940075E1,0E0,6.996479E0,0E0,0E0],"parents":[2147483647,0,0,2,2],"right_children":[2,-1,4,-1,-1],"split_conditions":[2.332678E-1,-1.4554725E-2,1.4035454E-1,5.313168E-3,9.602005E-2],"split_indices":[130,0,95,0,0],"split_type":[0,0,0,0,0],"sum_hessian":[1.7653961E1,1.4381567E1,3.2723944E0,1.1805308E0,2.0918639E0],"tree_param":{"num_deleted":"0","num_feature":"334","num_nodes":"5","size_leaf_vector":"1"}},{"base_weights":[-1.5335926E-1,7.943264E-2,-1.4626795E-2],"categories":[],"categories_nodes":[],"categories_segments":[],"categories_sizes":[],"default_left":[0,0,0],"id":90,"left_children":[1,-1,-1],"loss_changes":[1.7989147E1,0E0,0E0],"parents":[2147483647,0,0],"right_children":[2,-1,-1],"split_conditions":[3.5288098E-1,7.943264E-2,-1.4626795E-2],"split_indices":[313,0,0],"split_type":[0,0,0],"sum_hessian":[1.6837414E1,1.0568379E0,1.5780575E1],"tree_param":{"num_deleted":"0","num_feature":"334","num_nodes":"3","size_leaf_vector":"1"}},{"base_weights":[5.3739887E-2,-4.309612E-1,1.2011761E-1,7.181454E-3,-1.4611741E-2],"categories":[],"categories_nodes":[],"categories_segments":[],"categories_sizes":[],"default_left":[1,0,0,0,0],"id":91,"left_children":[1,3,-1,-1,-1],"loss_changes":[3.685486E1,7.6508117E-1,0E0,0E0,0E0],"parents":[2147483647,0,0,1,1],"right_children":[2,4,-1,-1,-1],"split_conditions":[3.1264588E-1,1.9919844E-1,1.2011761E-1,7.181454E-3,-1.4611741E-2],"split_indices":[313,42,0,0,0],"split_type":[0,0,0,0,0],"sum_hessian":[1.7347578E1,1.6245144E1,1.1024354E0,1.0021701E0,1.5242973E1],"tree_param":{"num_deleted":"0","num_feature":"334","num_nodes":"5","size_leaf_vector":"1"}},{"base_weights":[-1.0269934E-1,6.5418816E-1,-4.0616944E-1,-9.995521E-3,1.2155156E0,7.0048952E-3,-1.430962E-2,5.0069846E-2,1.2479571E-2],"categories":[],"categories_nodes":[],"categories_segments":[],"categories_sizes":[],"default_left":[0,0,0,0,0,0,0,0,0],"id":92,"left_children":[1,3,5,-1,7,-1,-1,-1,-1],"loss_changes":[4.4138336E0,3.4818983E0,7.2327805E-1,0E0,6.670108E-1,0E0,0E0,0E0,0E0],"parents":[2147483647,0,0,1,1,2,2,4,4],"right_children":[2,4,6,-1,8,-1,-1,-1,-1],"split_conditions":[1.4803024E-1,2.1536216E-1,2.5987205E-1,-9.995521E-3,2.887025E-1,7.0048952E-3,-1.430962E-2,5.0069846E-2,1.2479571E-2],"split_indices":[95,42,217,0,76,0,0,0,0],"split_type":[0,0,0,0,0,0,0,0,0],"sum_hessian":[1.7059443E1,4.55159E0,1.25078535E1,1.7970405E0,2.7545495E0,1.0177587E0,1.1490094E1,1.0637429E0,1.6908066E0],"tree_param":{"num_deleted":"0","num_feature":"334","num_nodes":"9","size_leaf_vector":"1"}},{"base_weights":[-2.6269346E-1,1.8794518E-2,-3.6543193E-1,6.7157894E-3,-4.1989443E-1,6.7194803E-3,-1.4468349E-2],"categories":[],"categories_nodes":[],"categories_segments":[],"categories_sizes":[],"default_left":[0,0,0,0,0,0,0],"id":93,"left_children":[1,-1,3,-1,5,-1,-1],"loss_changes":[1.8423921E0,0E0,6.2240005E-1,0E0,7.273624E-1,0E0,0E0],"parents":[2147483647,0,0,2,2,4,4],"right_children":[2,-1,4,-1,6,-1,-1],"split_conditions":[8.181472E-1,1.8794518E-2,2.4833088E-1,6.7157894E-3,2.536573E-1,6.7194803E-3,-1.4468349E-2],"split_indices":[239,0,217,0,222,0,0],"split_type":[0,0,0,0,0,0,0],"sum_hessian":[1.6661814E1,1.1977468E0,1.54640665E1,1.0451417E0,1.4418925E1,1.0448116E0,1.3374113E1],"tree_param":{"num_deleted":"0","num_feature":"334","num_nodes":"7","size_leaf_vector":"1"}},{"base_weights":[1.05512105E-1,-4.308083E-1,1.2824678E-1,7.0640356E-3,-1.4607372E-2],"categories":[],"categories_nodes":[],"categories_segments":[],"categories_sizes":[],"default_left":[1,0,0,0,0],"id":94,"left_children":[1,3,-1,-1,-1],"loss_changes":[4.3040348E1,7.588265E-1,0E0,0E0,0E0],"parents":[2147483647,0,0,1,1],"right_children":[2,4,-1,-1,-1],"split_conditions":[3.6180297E-1,2.856868E-1,1.2824678E-1,7.0640356E-3,-1.4607372E-2],"split_indices":[325,213,0,0,0],"split_type":[0,0,0,0,0],"sum_hessian":[1.7424152E1,1.6232756E1,1.1913967E0,1.0124311E0,1.52203245E1],"tree_param":{"num_deleted":"0","num_feature":"334","num_nodes":"5","size_leaf_vector":"1"}},{"base_weights":[2.3228498E-3,-1.875818E-1,3.6547102E-2,3.0855553E-2,-3.5502407E-1,2.195073E-2,-1.4478982E-2],"categories":[],"categories_nodes":[],"categories_segments":[],"categories_sizes":[],"default_left":[1,0,0,0,0,0,0],"id":95,"left_children":[1,3,-1,-1,5,-1,-1],"loss_changes":[4.4425607E0,3.7557714E0,0E0,0E0,2.4858618E0,0E0,0E0],"parents":[2147483647,0,0,1,1,4,4],"right_children":[2,4,-1,-1,6,-1,-1],"split_conditions":[2.7683794E-1,2.4982587E-1,3.6547102E-2,3.0855553E-2,3.6622456E-1,2.195073E-2,-1.4478982E-2],"split_indices":[130,222,0,0,290,0,0],"split_type":[0,0,0,0,0,0,0],"sum_hessian":[1.7249895E1,1.565118E1,1.5987148E0,1.2718024E0,1.4379377E1,1.0136105E0,1.33657675E1],"tree_param":{"num_deleted":"0","num_feature":"334","num_nodes":"7","size_leaf_vector":"1"}},{"base_weights":[1.5217796E-1,1.6572098E0,-1.7823361E-1,3.3083775E-3,8.0092475E-2,3.5842977E-2,-3.526353E-1,2.921532E-2,-1.4218597E-2,-8.942854E-3,7.721736E-3],"categories":[],"categories_nodes":[],"categories_segments":[],"categories_sizes":[],"default_left":[0,0,0,0,0,0,0,0,0,0,0],"id":96,"left_children":[1,3,5,-1,-1,-1,7,9,-1,-1,-1],"loss_changes":[9.560345E0,5.111081E0,4.2957306E0,0E0,0E0,0E0,7.146908E-1,4.194982E-1,0E0,0E0,0E0],"parents":[2147483647,0,0,1,1,2,2,6,6,7,7],"right_children":[2,4,6,-1,-1,-1,8,10,-1,-1,-1],"split_conditions":[2.072095E-1,1.9993673E-1,3.132698E-1,3.3083775E-3,8.0092475E-2,3.5842977E-2,1.5369008E-1,3.6124003E-1,-1.4218597E-2,-8.942854E-3,7.721736E-3],"split_indices":[42,42,213,0,0,0,95,76,0,0,0],"split_type":[0,0,0,0,0,0,0,0,0,0,0],"sum_hessian":[1.7631306E1,2.451064E0,1.5180243E1,1.4083456E0,1.0427186E0,1.051502E0,1.412874E1,3.5895977E0,1.0539143E1,1.3486208E0,2.240977E0],"tree_param":{"num_deleted":"0","num_feature":"334","num_nodes":"11","size_leaf_vector":"1"}},{"base_weights":[9.974066E-2,-1.2987027E-2,3.2709566E-1,-1.2230531E-2,6.376362E-1,-9.726458E-3,8.692733E-1,4.9723703E-2,7.6321727E-3],"categories":[],"categories_nodes":[],"categories_segments":[],"categories_sizes":[],"default_left":[0,0,0,0,0,0,0,0,0],"id":97,"left_children":[1,-1,3,-1,5,-1,7,-1,-1],"loss_changes":[2.3936744E0,0E0,3.363936E0,0E0,2.499157E0,0E0,3.596961E0,0E0,0E0],"parents":[2147483647,0,0,2,2,4,4,6,6],"right_children":[2,-1,4,-1,6,-1,8,-1,-1],"split_conditions":[6.146935E-1,-1.2987027E-2,6.5858513E-1,-1.2230531E-2,2.802527E-1,-9.726458E-3,1.7380558E-1,4.9723703E-2,7.6321727E-3],"split_indices":[42,0,127,0,217,0,95,0,0],"split_type":[0,0,0,0,0,0,0,0,0],"sum_hessian":[1.7597012E1,4.9937367E0,1.2603274E1,3.6512086E0,8.952065E0,1.6598841E0,7.292182E0,2.4526098E0,4.839572E0],"tree_param":{"num_deleted":"0","num_feature":"334","num_nodes":"9","size_leaf_vector":"1"}},{"base_weights":[-8.3720783E-4,-2.3244235E-1,3.0492345E-2,-1.1569676E-2,1.3701537E-1,2.9454093E-2,-1.1691689E-2],"categories":[],"categories_nodes":[],"categories_segments":[],"categories_sizes":[],"default_left":[1,1,0,0,0,0,0],"id":98,"left_children":[1,3,-1,-1,5,-1,-1],"loss_changes":[4.5612E0,9.4532406E-1,0E0,0E0,2.7675612E0,0E0,0E0],"parents":[2147483647,0,0,1,1,4,4],"right_children":[2,4,-1,-1,6,-1,-1],"split_conditions":[2.4333356E-1,1.461555E-1,3.0492345E-2,-1.1569676E-2,1.5591653E-1,2.9454093E-2,-1.1691689E-2],"split_indices":[130,95,0,0,95,0,0],"split_type":[0,0,0,0,0,0,0],"sum_hessian":[1.735714E1,1.4766607E1,2.5905325E0,1.0406999E1,4.3596087E0,1.3425251E0,3.0170834E0],"tree_param":{"num_deleted":"0","num_feature":"334","num_nodes":"7","size_leaf_vector":"1"}},{"base_weights":[1.9940631E-3,7.350198E-2,-3.1281558E-1,3.6727373E-2,-1.4595716E-2],"categories":[],"categories_nodes":[],"categories_segments":[],"categories_sizes":[],"default_left":[0,0,0,0,0],"id":99,"left_children":[1,-1,3,-1,-1],"loss_changes":[1.4839494E1,0E0,5.152463E0,0E0,0E0],"parents":[2147483647,0,0,2,2],"right_children":[2,-1,4,-1,-1],"split_conditions":[8.508992E-1,7.350198E-2,3.4107712E-1,3.6727373E-2,-1.4595716E-2],"split_indices":[100,0,247,0,0],"split_type":[0,0,0,0,0],"sum_hessian":[1.7260672E1,1.1938874E0,1.6066786E1,1.0173179E0,1.5049467E1],"tree_param":{"num_deleted":"0","num_feature":"334","num_nodes":"5","size_leaf_vector":"1"}},{"base_weights":[1.5469931E-1,1.2963344E-1,-1.46488175E-2],"categories":[],"categories_nodes":[],"categories_segments":[],"categories_sizes":[],"default_left":[0,0,0],"id":100,"left_children":[1,-1,-1],"loss_changes":[5.1818916E1,0E0,0E0],"parents":[2147483647,0,0],"right_children":[2,-1,-1],"split_conditions":[8.9035845E-1,1.2963344E-1,-1.46488175E-2],"split_indices":[145,0,0],"split_type":[0,0,0],"sum_hessian":[1.7555197E1,1.5822632E0,1.5972933E1],"tree_param":{"num_deleted":"0","num_feature":"334","num_nodes":"3","size_leaf_vector":"1"}},{"base_weights":[-4.959659E-2,-4.2055246E-1,1.5329745E0,6.8237875E-3,-1.4479667E-2,-7.987781E-3,7.069922E-2],"categories":[],"categories_nodes":[],"categories_segments":[],"categories_sizes":[],"default_left":[1,0,0,0,0,0,0],"id":101,"left_children":[1,3,5,-1,-1,-1,-1],"loss_changes":[1.1294927E1,7.328086E-1,6.0517435E0,0E0,0E0,0E0,0E0],"parents":[2147483647,0,0,1,1,2,2],"right_children":[2,4,6,-1,-1,-1,-1],"split_conditions":[2.3424448E-1,1.3255289E-1,2.3386106E-1,6.8237875E-3,-1.4479667E-2,-7.987781E-3,7.069922E-2],"split_indices":[222,95,42,0,0,0,0],"split_type":[0,0,0,0,0,0,0],"sum_hessian":[1.7141514E1,1.4481337E1,2.6601765E0,1.0336065E0,1.344773E1,1.0478877E0,1.612289E0],"tree_param":{"num_deleted":"0","num_feature":"334","num_nodes":"7","size_leaf_vector":"1"}},{"base_weights":[1.1807544E-3,1.8170047E0,-3.620802E-1,6.9830674E-3,7.326531E-2,2.0853443E-2,-1.452199E-2],"categories":[],"categories_nodes":[],"categories_segments":[],"categories_sizes":[],"default_left":[0,0,0,0,0,0,0],"id":102,"left_children":[1,3,5,-1,-1,-1,-1],"loss_changes":[1.2720217E1,2.6153803E0,2.409201E0,0E0,0E0,0E0,0E0],"parents":[2147483647,0,0,1,1,2,2],"right_children":[2,4,6,-1,-1,-1,-1],"split_conditions":[3.4608367E-1,2.630829E-1,2.4833088E-1,6.9830674E-3,7.326531E-2,2.0853443E-2,-1.452199E-2],"split_indices":[21,42,217,0,0,0,0],"split_type":[0,0,0,0,0,0,0],"sum_hessian":[1.7286821E1,2.2146375E0,1.5072184E1,1.0149649E0,1.1996727E0,1.073176E0,1.3999007E1],"tree_param":{"num_deleted":"0","num_feature":"334","num_nodes":"7","size_leaf_vector":"1"}},{"base_weights":[5.4436337E-2,8.184114E-2,-2.5844285E-1,-1.4615164E-2,4.8188027E-2],"categories":[],"categories_nodes":[],"categories_segments":[],"categories_sizes":[],"default_left":[0,0,1,0,0],"id":103,"left_children":[1,-1,3,-1,-1],"loss_changes":[1.6038885E1,0E0,8.171326E0,0E0,0E0],"parents":[2147483647,0,0,2,2],"right_children":[2,-1,4,-1,-1],"split_conditions":[8.469322E-1,8.184114E-2,2.9414082E-1,-1.4615164E-2,4.8188027E-2],"split_indices":[137,0,143,0,0],"split_type":[0,0,0,0,0],"sum_hessian":[1.7330643E1,1.0069505E0,1.6323692E1,1.5198191E1,1.125501E0],"tree_param":{"num_deleted":"0","num_feature":"334","num_nodes":"5","size_leaf_vector":"1"}},{"base_weights":[-4.9250767E-2,7.50285E-2,-3.7038472E-1,1.0269081E-1,-1.4440457E-2,-9.0971505E-3,1.3000706E-2],"categories":[],"categories_nodes":[],"categories_segments":[],"categories_sizes":[],"default_left":[0,0,0,0,0,0,0],"id":104,"left_children":[1,-1,3,5,-1,-1,-1],"loss_changes":[1.5773045E1,0E0,9.4037914E-1,6.748692E-1,0E0,0E0,0E0],"parents":[2147483647,0,0,2,2,3,3],"right_children":[2,-1,4,6,-1,-1,-1],"split_conditions":[3.7057844E-1,7.50285E-2,1.4159407E-1,1.3274743E-1,-1.4440457E-2,-9.0971505E-3,1.3000706E-2],"split_indices":[58,0,95,95,0,0,0],"split_type":[0,0,0,0,0,0,0],"sum_hessian":[1.7128847E1,1.1565485E0,1.5972299E1,3.0488033E0,1.2923495E1,1.4058787E0,1.6429247E0],"tree_param":{"num_deleted":"0","num_feature":"334","num_nodes":"7","size_leaf_vector":"1"}},{"base_weights":[1.0561916E-1,1.2678158E-1,-1.4648409E-2],"categories":[],"categories_nodes":[],"categories_segments":[],"categories_sizes":[],"default_left":[0,0,0],"id":105,"left_children":[1,-1,-1],"loss_changes":[4.7138355E1,0E0,0E0],"parents":[2147483647,0,0],"right_children":[2,-1,-1],"split_conditions":[4.5847037E-1,1.2678158E-1,-1.4648409E-2],"split_indices":[312,0,0],"split_type":[0,0,0],"sum_hessian":[1.7419529E1,1.424018E0,1.5995511E1],"tree_param":{"num_deleted":"0","num_feature":"334","num_nodes":"3","size_leaf_vector":"1"}},{"base_weights":[-5.0185926E-2,4.4904176E-2,-3.046402E-1,2.0687256E-2,-1.4485199E-2],"categories":[],"categories_nodes":[],"categories_segments":[],"categories_sizes":[],"default_left":[0,0,0,0,0],"id":106,"left_children":[1,-1,3,-1,-1],"loss_changes":[7.606106E0,0E0,3.2437282E0,0E0,0E0],"parents":[2147483647,0,0,2,2],"right_children":[2,-1,4,-1,-1],"split_conditions":[3.938956E-1,4.4904176E-2,7.862963E-1,2.0687256E-2,-1.4485199E-2],"split_indices":[257,0,213,0,0],"split_type":[0,0,0,0,0],"sum_hessian":[1.7164165E1,1.7347971E0,1.5429368E1,1.9089946E0,1.3520373E1],"tree_param":{"num_deleted":"0","num_feature":"334","num_nodes":"5","size_leaf_vector":"1"}},{"base_weights":[-1.535762E-1,6.896496E-2,-1.46113895E-2],"categories":[],"categories_nodes":[],"categories_segments":[],"categories_sizes":[],"default_left":[0,0,0],"id":107,"left_children":[1,-1,-1],"loss_changes":[1.5715254E1,0E0,0E0],"parents":[2147483647,0,0],"right_children":[2,-1,-1],"split_conditions":[2.927621E-1,6.896496E-2,-1.46113895E-2],"split_indices":[21,0,0],"split_type":[0,0,0],"sum_hessian":[1.684731E1,1.3111532E0,1.5536157E1],"tree_param":{"num_deleted":"0","num_feature":"334","num_nodes":"3","size_leaf_vector":"1"}},{"base_weights":[5.4578993E-2,1.8525041E0,-3.5866824E-1,8.530577E-2,3.765444E-3,-1.4497713E-2,2.1590168E-2],"categories":[],"categories_nodes":[],"categories_segments":[],"categories_sizes":[],"default_left":[0,0,1,0,0,0,0],"id":108,"left_children":[1,3,5,-1,-1,-1,-1],"loss_changes":[1.4277276E1,5.7811127E0,2.4618244E0,0E0,0E0,0E0,0E0],"parents":[2147483647,0,0,1,1,2,2],"right_children":[2,4,6,-1,-1,-1,-1],"split_conditions":[7.196797E-1,2.630829E-1,2.5987205E-1,8.530577E-2,3.765444E-3,-1.4497713E-2,2.1590168E-2],"split_indices":[21,42,217,0,0,0,0],"split_type":[0,0,0,0,0,0,0],"sum_hessian":[1.732176E1,2.5863712E0,1.473539E1,1.2325554E0,1.3538158E0,1.3703922E1,1.0314673E0],"tree_param":{"num_deleted":"0","num_feature":"334","num_nodes":"7","size_leaf_vector":"1"}},{"base_weights":[-1.0660423E-1,-1.3981298E-2,2.881973E-1,-9.844882E-3,4.717275E-1,-8.841032E-3,6.798977E-1,-7.98373E-3,2.7666917E-2],"categories":[],"categories_nodes":[],"categories_segments":[],"categories_sizes":[],"default_left":[0,0,0,0,0,0,0,0,0],"id":109,"left_children":[1,-1,3,-1,5,-1,7,-1,-1],"loss_changes":[2.719829E0,0E0,1.206902E0,0E0,1.4092501E0,0E0,1.6807594E0,0E0,0E0],"parents":[2147483647,0,0,2,2,4,4,6,6],"right_children":[2,-1,4,-1,6,-1,8,-1,-1],"split_conditions":[7.778964E-1,-1.3981298E-2,2.65992E-1,-9.844882E-3,3.010999E-1,-8.841032E-3,2.5103027E-1,-7.98373E-3,2.7666917E-2],"split_indices":[95,0,42,0,127,0,244,0,0],"split_type":[0,0,0,0,0,0,0,0,0],"sum_hessian":[1.7219786E1,8.919112E0,8.300674E0,1.7237262E0,6.576948E0,1.3160224E0,5.260926E0,1.0528032E0,4.2081223E0],"tree_param":{"num_deleted":"0","num_feature":"334","num_nodes":"9","size_leaf_vector":"1"}},{"base_weights":[-4.9688365E-2,-1.4562642E-2,1.9852736E0,-8.006694E-3,9.274647E-2],"categories":[],"categories_nodes":[],"categories_segments":[],"categories_sizes":[],"default_left":[1,0,0,0,0],"id":110,"left_children":[1,-1,3,-1,-1],"loss_changes":[1.7047817E1,0E0,9.285106E0,0E0,0E0],"parents":[2147483647,0,0,2,2],"right_children":[2,-1,4,-1,-1],"split_conditions":[2.6045147E-1,-1.4562642E-2,3.0734175E-1,-8.006694E-3,9.274647E-2],"split_indices":[21,0,42,0,0],"split_type":[0,0,0,0,0],"sum_hessian":[1.7139303E1,1.4743774E1,2.3955286E0,1.0390244E0,1.3565042E0],"tree_param":{"num_deleted":"0","num_feature":"334","num_nodes":"5","size_leaf_vector":"1"}},{"base_weights":[1.7070917E-3,1.3851496E0,-3.5438085E-1,1.039601E-2,6.5559044E-2,6.9565265E-3,-4.1248006E-1,-1.4383338E-2,6.7726583E-3],"categories":[],"categories_nodes":[],"categories_segments":[],"categories_sizes":[],"default_left":[0,1,0,0,0,0,1,0,0],"id":111,"left_children":[1,3,5,-1,-1,-1,7,-1,-1],"loss_changes":[9.490711E0,2.519938E0,6.176611E-1,0E0,0E0,0E0,7.1956253E-1,0E0,0E0],"parents":[2147483647,0,0,1,1,2,2,6,6],"right_children":[2,4,6,-1,-1,-1,8,-1,-1],"split_conditions":[3.4261137E-1,1.5369922E-1,2.9201576E-1,1.039601E-2,6.5559044E-2,6.9565265E-3,1.9215436E-1,-1.4383338E-2,6.7726583E-3],"split_indices":[130,95,21,0,0,0,95,0,0],"split_type":[0,0,0,0,0,0,0,0,0],"sum_hessian":[1.726907E1,2.943464E0,1.4325604E1,1.9044842E0,1.03898E0,1.0219702E0,1.3303635E1,1.2265515E1,1.0381188E0],"tree_param":{"num_deleted":"0","num_feature":"334","num_nodes":"9","size_leaf_vector":"1"}},{"base_weights":[-2.831967E-3,-1.399662E-2,4.885457E-1,3.619828E-2,1.04245685E-1,-9.919322E-3,3.0298418E-1,1.4687051E-2,-7.852759E-3],"categories":[],"categories_nodes":[],"categories_segments":[],"categories_sizes":[],"default_left":[0,0,0,0,0,0,1,0,0],"id":112,"left_children":[1,-1,3,-1,5,-1,7,-1,-1],"loss_changes":[4.4259033E0,0E0,2.4773762E0,0E0,7.2587085E-1,0E0,7.066976E-1,0E0,0E0],"parents":[2147483647,0,0,2,2,4,4,6,6],"right_children":[2,-1,4,-1,6,-1,8,-1,-1],"split_conditions":[7.778964E-1,-1.399662E-2,1.6201924E-1,3.619828E-2,2.8076577E-1,-9.919322E-3,2.4946563E-1,1.4687051E-2,-7.852759E-3],"split_indices":[95,0,76,0,76,0,85,0,0],"split_type":[0,0,0,0,0,0,0,0,0],"sum_hessian":[1.7423252E1,8.989868E0,8.433384E0,2.194049E0,6.2393346E0,1.7488023E0,4.4905324E0,3.4754114E0,1.015121E0],"tree_param":{"num_deleted":"0","num_feature":"334","num_nodes":"9","size_leaf_vector":"1"}},{"base_weights":[5.5444162E-2,-3.1153086E-1,8.147253E-2,-1.458326E-2,3.7118644E-2],"categories":[],"categories_nodes":[],"categories_segments":[],"categories_sizes":[],"default_left":[1,1,0,0,0],"id":113,"left_children":[1,3,-1,-1,-1],"loss_changes":[1.8706167E1,5.1909723E0,0E0,0E0,0E0],"parents":[2147483647,0,0,1,1],"right_children":[2,4,-1,-1,-1],"split_conditions":[3.2362276E-1,2.9122245E-1,8.147253E-2,-1.458326E-2,3.7118644E-2],"split_indices":[100,247,0,0,0],"split_type":[0,0,0,0,0],"sum_hessian":[1.7294321E1,1.5973727E1,1.320593E0,1.4972247E1,1.0014802E0],"tree_param":{"num_deleted":"0","num_feature":"334","num_nodes":"5","size_leaf_vector":"1"}},{"base_weights":[3.8077582E-3,9.287355E-2,-1.4613697E-2],"categories":[],"categories_nodes":[],"categories_segments":[],"categories_sizes":[],"default_left":[0,0,0],"id":114,"left_children":[1,-1,-1],"loss_changes":[2.9117167E1,0E0,0E0],"parents":[2147483647,0,0],"right_children":[2,-1,-1],"split_conditions":[4.791737E-1,9.287355E-2,-1.4613697E-2],"split_indices":[58,0,0],"split_type":[0,0,0],"sum_hessian":[1.7188463E1,1.6281453E0,1.5560318E1],"tree_param":{"num_deleted":"0","num_feature":"334","num_nodes":"3","size_leaf_vector":"1"}},{"base_weights":[-4.903976E-2,-3.6552736E-1,5.7778694E-2,-4.20062E-1,6.8884157E-3,6.7700776E-3,-1.4470176E-2],"categories":[],"categories_nodes":[],"categories_segments":[],"categories_sizes":[],"default_left":[1,1,0,0,0,0,0],"id":115,"left_children":[1,3,-1,5,-1,-1,-1],"loss_changes":[1.2028886E1,6.305499E-1,0E0,7.2928524E-1,0E0,0E0,0E0],"parents":[2147483647,0,0,1,1,3,3],"right_children":[2,4,-1,6,-1,-1,-1],"split_conditions":[3.1338122E-1,2.6250955E-1,5.7778694E-2,1.5408954E-1,6.8884157E-3,6.7700776E-3,-1.4470176E-2],"split_indices":[0,54,0,76,0,0,0],"split_type":[0,0,0,0,0,0,0],"sum_hessian":[1.7118042E1,1.5456159E1,1.6618836E0,1.4428235E1,1.0279233E0,1.0383463E0,1.3389889E1],"tree_param":{"num_deleted":"0","num_feature":"334","num_nodes":"7","size_leaf_vector":"1"}},{"base_weights":[1.4851052E-1,-1.45399235E-2,2.2705727E0,5.240134E-3,8.922926E-2],"categories":[],"categories_nodes":[],"categories_segments":[],"categories_sizes":[],"default_left":[1,0,1,0,0],"id":116,"left_children":[1,-1,3,-1,-1],"loss_changes":[2.6252165E1,0E0,6.084919E0,0E0,0E0],"parents":[2147483647,0,0,2,2],"right_children":[2,-1,4,-1,-1],"split_conditions":[2.332678E-1,-1.45399235E-2,1.4035454E-1,5.240134E-3,8.922926E-2],"split_indices":[130,0,95,0,0],"split_type":[0,0,0,0,0],"sum_hessian":[1.7719131E1,1.4241424E1,3.477707E0,1.1879379E0,2.2897692E0],"tree_param":{"num_deleted":"0","num_feature":"334","num_nodes":"5","size_leaf_vector":"1"}},{"base_weights":[-1.517456E-1,7.567859E-2,-1.4612118E-2],"categories":[],"categories_nodes":[],"categories_segments":[],"categories_sizes":[],"default_left":[0,0,0],"id":117,"left_children":[1,-1,-1],"loss_changes":[1.7155127E1,0E0,0E0],"parents":[2147483647,0,0],"right_children":[2,-1,-1],"split_conditions":[3.5288098E-1,7.567859E-2,-1.4612118E-2],"split_indices":[313,0,0],"split_type":[0,0,0],"sum_hessian":[1.6759546E1,1.1405162E0,1.561903E1],"tree_param":{"num_deleted":"0","num_feature":"334","num_nodes":"3","size_leaf_vector":"1"}},{"base_weights":[5.397304E-2,-4.3004853E-1,1.1203047E-1,7.0912368E-3,-1.4596965E-2],"categories":[],"categories_nodes":[],"categories_segments":[],"categories_sizes":[],"default_left":[1,0,0,0,0],"id":118,"left_children":[1,3,-1,-1,-1],"loss_changes":[3.426742E1,7.5909305E-1,0E0,0E0,0E0],"parents":[2147483647,0,0,1,1],"right_children":[2,4,-1,-1,-1],"split_conditions":[3.1264588E-1,1.2950157E-1,1.1203047E-1,7.0912368E-3,-1.4596965E-2],"split_indices":[313,95,0,0,0],"split_type":[0,0,0,0,0],"sum_hessian":[1.7334911E1,1.6100605E1,1.2343066E0,1.0099047E0,1.50907E1],"tree_param":{"num_deleted":"0","num_feature":"334","num_nodes":"5","size_leaf_vector":"1"}},{"base_weights":[-1.01923004E-1,6.391274E-1,-4.0514615E-1,-9.9731395E-3,1.1784891E0,6.901177E-3,-1.4292864E-2,4.8396055E-2,1.2190246E-2],"categories":[],"categories_nodes":[],"categories_segments":[],"categories_sizes":[],"default_left":[0,0,0,0,0,0,0,0,0],"id":119,"left_children":[1,3,5,-1,7,-1,-1,-1,-1],"loss_changes":[4.309357E0,3.3378541E0,7.1648073E-1,0E0,6.3179684E-1,0E0,0E0,0E0,0E0],"parents":[2147483647,0,0,1,1,2,2,4,4],"right_children":[2,4,6,-1,8,-1,-1,-1,-1],"split_conditions":[1.4803024E-1,2.1536216E-1,2.5987205E-1,-9.9731395E-3,2.887025E-1,6.901177E-3,-1.4292864E-2,4.8396055E-2,1.2190246E-2],"split_indices":[95,42,217,0,76,0,0,0,0],"split_type":[0,0,0,0,0,0,0,0,0],"sum_hessian":[1.7025599E1,4.6220183E0,1.2403581E1,1.786892E0,2.8351264E0,1.026803E0,1.1376778E1,1.1170155E0,1.718111E0],"tree_param":{"num_deleted":"0","num_feature":"334","num_nodes":"9","size_leaf_vector":"1"}},{"base_weights":[-2.6130718E-1,1.8374108E-2,-3.642135E-1,6.799524E-3,-4.190631E-1,6.6367285E-3,-1.4454907E-2],"categories":[],"categories_nodes":[],"categories_segments":[],"categories_sizes":[],"default_left":[0,0,0,0,0,0,0],"id":120,"left_children":[1,-1,3,-1,5,-1,-1],"loss_changes":[1.8031446E0,0E0,6.248026E-1,0E0,7.2190547E-1,0E0,0E0],"parents":[2147483647,0,0,2,2,4,4],"right_children":[2,-1,4,-1,6,-1,-1],"split_conditions":[8.181472E-1,1.8374108E-2,3.4263045E-1,6.799524E-3,2.3139605E-1,6.6367285E-3,-1.4454907E-2],"split_indices":[239,0,257,0,244,0,0],"split_type":[0,0,0,0,0,0,0],"sum_hessian":[1.6572552E1,1.2244046E0,1.5348147E1,1.0376709E0,1.4310476E1,1.0522236E0,1.3258253E1],"tree_param":{"num_deleted":"0","num_feature":"334","num_nodes":"7","size_leaf_vector":"1"}},{"base_weights":[1.0495654E-1,-4.2989257E-1,1.1872796E-1,7.135562E-3,-1.4594247E-2],"categories":[],"categories_nodes":[],